FANN_FLO_2.1
num_layers=3
learning_rate=0.700000
connection_rate=1.000000
network_type=0
learning_momentum=0.000000
training_algorithm=2
train_error_function=1
train_stop_function=0
cascade_output_change_fraction=0.010000
quickprop_decay=-0.000100
quickprop_mu=1.750000
rprop_increase_factor=1.200000
rprop_decrease_factor=0.500000
rprop_delta_min=0.000000
rprop_delta_max=50.000000
rprop_delta_zero=0.100000
cascade_output_stagnation_epochs=12
cascade_candidate_change_fraction=0.010000
cascade_candidate_stagnation_epochs=12
cascade_max_out_epochs=150
cascade_min_out_epochs=50
cascade_max_cand_epochs=150
cascade_min_cand_epochs=50
cascade_num_candidate_groups=2
bit_fail_limit=3.49999999999999977796e-01
cascade_candidate_limit=1.00000000000000000000e+03
cascade_weight_multiplier=4.00000000000000022204e-01
cascade_activation_functions_count=10
cascade_activation_functions=3 5 7 8 10 11 14 15 16 17 
cascade_activation_steepnesses_count=4
cascade_activation_steepnesses=2.50000000000000000000e-01 5.00000000000000000000e-01 7.50000000000000000000e-01 1.00000000000000000000e+00 
layer_sizes=59 59 6 
scale_included=0
neurons (num_inputs, activation_function, activation_steepness)=(0, 0, 0.00000000000000000000e+00) (0, 0, 0.00000000000000000000e+00) (0, 0, 0.00000000000000000000e+00) (0, 0, 0.00000000000000000000e+00) (0, 0, 0.00000000000000000000e+00) (0, 0, 0.00000000000000000000e+00) (0, 0, 0.00000000000000000000e+00) (0, 0, 0.00000000000000000000e+00) (0, 0, 0.00000000000000000000e+00) (0, 0, 0.00000000000000000000e+00) (0, 0, 0.00000000000000000000e+00) (0, 0, 0.00000000000000000000e+00) (0, 0, 0.00000000000000000000e+00) (0, 0, 0.00000000000000000000e+00) (0, 0, 0.00000000000000000000e+00) (0, 0, 0.00000000000000000000e+00) (0, 0, 0.00000000000000000000e+00) (0, 0, 0.00000000000000000000e+00) (0, 0, 0.00000000000000000000e+00) (0, 0, 0.00000000000000000000e+00) (0, 0, 0.00000000000000000000e+00) (0, 0, 0.00000000000000000000e+00) (0, 0, 0.00000000000000000000e+00) (0, 0, 0.00000000000000000000e+00) (0, 0, 0.00000000000000000000e+00) (0, 0, 0.00000000000000000000e+00) (0, 0, 0.00000000000000000000e+00) (0, 0, 0.00000000000000000000e+00) (0, 0, 0.00000000000000000000e+00) (0, 0, 0.00000000000000000000e+00) (0, 0, 0.00000000000000000000e+00) (0, 0, 0.00000000000000000000e+00) (0, 0, 0.00000000000000000000e+00) (0, 0, 0.00000000000000000000e+00) (0, 0, 0.00000000000000000000e+00) (0, 0, 0.00000000000000000000e+00) (0, 0, 0.00000000000000000000e+00) (0, 0, 0.00000000000000000000e+00) (0, 0, 0.00000000000000000000e+00) (0, 0, 0.00000000000000000000e+00) (0, 0, 0.00000000000000000000e+00) (0, 0, 0.00000000000000000000e+00) (0, 0, 0.00000000000000000000e+00) (0, 0, 0.00000000000000000000e+00) (0, 0, 0.00000000000000000000e+00) (0, 0, 0.00000000000000000000e+00) (0, 0, 0.00000000000000000000e+00) (0, 0, 0.00000000000000000000e+00) (0, 0, 0.00000000000000000000e+00) (0, 0, 0.00000000000000000000e+00) (0, 0, 0.00000000000000000000e+00) (0, 0, 0.00000000000000000000e+00) (0, 0, 0.00000000000000000000e+00) (0, 0, 0.00000000000000000000e+00) (0, 0, 0.00000000000000000000e+00) (0, 0, 0.00000000000000000000e+00) (0, 0, 0.00000000000000000000e+00) (0, 0, 0.00000000000000000000e+00) (0, 0, 0.00000000000000000000e+00) (59, 4, 5.00000000000000000000e-01) (59, 4, 5.00000000000000000000e-01) (59, 4, 5.00000000000000000000e-01) (59, 4, 5.00000000000000000000e-01) (59, 4, 5.00000000000000000000e-01) (59, 4, 5.00000000000000000000e-01) (59, 4, 5.00000000000000000000e-01) (59, 4, 5.00000000000000000000e-01) (59, 4, 5.00000000000000000000e-01) (59, 4, 5.00000000000000000000e-01) (59, 4, 5.00000000000000000000e-01) (59, 4, 5.00000000000000000000e-01) (59, 4, 5.00000000000000000000e-01) (59, 4, 5.00000000000000000000e-01) (59, 4, 5.00000000000000000000e-01) (59, 4, 5.00000000000000000000e-01) (59, 4, 5.00000000000000000000e-01) (59, 4, 5.00000000000000000000e-01) (59, 4, 5.00000000000000000000e-01) (59, 4, 5.00000000000000000000e-01) (59, 4, 5.00000000000000000000e-01) (59, 4, 5.00000000000000000000e-01) (59, 4, 5.00000000000000000000e-01) (59, 4, 5.00000000000000000000e-01) (59, 4, 5.00000000000000000000e-01) (59, 4, 5.00000000000000000000e-01) (59, 4, 5.00000000000000000000e-01) (59, 4, 5.00000000000000000000e-01) (59, 4, 5.00000000000000000000e-01) (59, 4, 5.00000000000000000000e-01) (59, 4, 5.00000000000000000000e-01) (59, 4, 5.00000000000000000000e-01) (59, 4, 5.00000000000000000000e-01) (59, 4, 5.00000000000000000000e-01) (59, 4, 5.00000000000000000000e-01) (59, 4, 5.00000000000000000000e-01) (59, 4, 5.00000000000000000000e-01) (59, 4, 5.00000000000000000000e-01) (59, 4, 5.00000000000000000000e-01) (59, 4, 5.00000000000000000000e-01) (59, 4, 5.00000000000000000000e-01) (59, 4, 5.00000000000000000000e-01) (59, 4, 5.00000000000000000000e-01) (59, 4, 5.00000000000000000000e-01) (59, 4, 5.00000000000000000000e-01) (59, 4, 5.00000000000000000000e-01) (59, 4, 5.00000000000000000000e-01) (59, 4, 5.00000000000000000000e-01) (59, 4, 5.00000000000000000000e-01) (59, 4, 5.00000000000000000000e-01) (59, 4, 5.00000000000000000000e-01) (59, 4, 5.00000000000000000000e-01) (59, 4, 5.00000000000000000000e-01) (59, 4, 5.00000000000000000000e-01) (59, 4, 5.00000000000000000000e-01) (59, 4, 5.00000000000000000000e-01) (59, 4, 5.00000000000000000000e-01) (59, 4, 5.00000000000000000000e-01) (0, 0, 0.00000000000000000000e+00) (59, 4, 5.00000000000000000000e-01) (59, 4, 5.00000000000000000000e-01) (59, 4, 5.00000000000000000000e-01) (59, 4, 5.00000000000000000000e-01) (59, 4, 5.00000000000000000000e-01) (0, 0, 0.00000000000000000000e+00) 
connections (connected_to_neuron, weight)=(0, 1.76937374397907838386e+01) (1, -1.50443627033993632125e+00) (2, 8.73511268967405740682e+00) (3, 8.61976816529051248494e+00) (4, -1.57085982803866297530e+00) (5, -4.61853940469626706999e+01) (6, -2.03782726179561990421e+00) (7, -8.40504007707331339816e+01) (8, -1.13799595007462661655e+00) (9, 8.78411778205266280395e+00) (10, 1.91544438454292418328e+01) (11, -1.87176737389378078369e+00) (12, 1.77154354974423036140e+01) (13, -1.43071927223965555953e+00) (14, 1.77220071553979501289e+01) (15, 8.20380549763785005268e+00) (16, 1.76887645050474660025e+01) (17, -1.25411943728610419946e+00) (18, 6.09925684594652461890e-01) (19, -3.25303756824382830359e+01) (20, -1.50339261704636378836e-01) (21, -1.67069291375424056056e+00) (22, 2.75649956392126949112e+00) (23, -3.32818947255829744591e+00) (24, -3.51739226418401551566e-01) (25, 3.96783203063743705741e+00) (26, -7.30971912249168198628e+00) (27, 2.24971064422993229925e+01) (28, 5.70396118478321589862e+00) (29, 2.25949232448606061041e+01) (30, -3.00037212477707004865e+00) (31, -1.20197020219349752779e+01) (32, -1.33322124656394969122e+00) (33, 2.03124437748874981935e+01) (34, -1.32063533713635585798e+01) (35, 2.24779989440707730353e+01) (36, 1.51376135660366628599e+01) (37, -1.20545047791385542268e+01) (38, 2.98400297983579605443e+01) (39, 2.98273648842267959935e+01) (40, 1.61952633390163711624e+01) (41, 2.25983179379968213141e+01) (42, -1.20554040195131193514e+01) (43, 2.97982303648285835607e+01) (44, 1.52519714100317571592e+01) (45, 2.98203905596427887303e+01) (46, 3.81501167444723332522e+00) (47, 3.81959315566557133792e+00) (48, 3.83595045088070119021e+00) (49, 3.85022382242816174625e+00) (50, 3.88230649559038365481e+00) (51, -1.20205147163653265352e+01) (52, 3.82610048530834401248e+00) (53, 3.91045408128040516971e+00) (54, 3.94486287413376057742e+00) (55, -1.19008402870678793306e+01) (56, -1.78681947408546584199e+01) (57, 9.52695580369281452837e-02) (58, 9.38283580909427206151e-01) (0, 3.92707523024420712687e+00) (1, 2.47033316028891869465e+00) (2, 7.94130006749378281050e-01) (3, 3.30913331507646280016e+00) (4, -4.11085624109564840012e-01) (5, 3.23851374684774118151e+00) (6, 1.36926005655019156215e+00) (7, 3.92806389248709653117e+00) (8, 4.99511066450381624460e-01) (9, 2.54695033281737392983e+00) (10, 4.10280648526696656297e-01) (11, -7.23415910409197682185e+00) (12, 1.41164570176093406850e+00) (13, -2.80803436135705963839e-01) (14, 3.91218345305662129618e+00) (15, 5.08110477595291154529e-01) (16, -1.33172962304307436199e+01) (17, 1.07688075697565599498e+00) (18, -1.77472083898081389730e-01) (19, -2.68420057644309262290e-01) (20, -7.24800082997784489436e+00) (21, -2.25554414276252002125e+00) (22, 1.37223071950691757337e+01) (23, -1.98079658924981210077e+01) (24, 9.09985424988057545193e+00) (25, 7.16401680948175734187e+00) (26, -7.42179727710463765789e+01) (27, 9.27649802238792098308e+00) (28, 8.78030371799305697778e+00) (29, 2.98365579768114059789e+01) (30, -7.41352544434048894573e+01) (31, -1.70325027222366884416e+02) (32, -7.41645869321801427532e+01) (33, -2.40350366268662440916e+00) (34, -1.70395881930919244951e+02) (35, 1.32890956987027664127e+00) (36, -7.41738918356277707744e+01) (37, -1.70387154790194585985e+02) (38, -3.49175165798038511511e+00) (39, 6.61218987836969329663e+00) (40, -4.72971200490588383758e+00) (41, 2.98271451666049927098e+01) (42, -1.70245315658481672472e+02) (43, 8.87235859169796725610e+00) (44, -1.70271046566398695177e+02) (45, 3.45244821072860386124e+00) (46, -3.16765333025318707172e+00) (47, -3.14388360141378964130e+00) (48, -3.04401530383688534442e+00) (49, -3.20201872347456539813e+00) (50, -3.17672938166719998065e+00) (51, -1.70211730169685438341e+02) (52, -3.19041248096686924640e+00) (53, -3.13152085302931393329e+00) (54, -3.16531883983475292865e+00) (55, -1.70332307646604135698e+02) (56, -1.20110745671739778118e+02) (57, 3.26211693285905557360e+00) (58, 4.68233309372464712173e-01) (0, -9.32659331083841247612e-01) (1, -1.27164233882827071298e+00) (2, -9.62248796891531865683e-01) (3, 6.01478098646736292210e-01) (4, 2.23596300534042669028e+00) (5, 7.85075115581614579874e-01) (6, -5.41718366609932666655e-01) (7, 2.11460764192336503342e+00) (8, 2.50639362081126360060e-01) (9, -2.20289534954458474658e+01) (10, -1.88616865403178568528e+00) (11, -9.93092524269777010559e-01) (12, 3.61213820052142864370e+00) (13, 2.14578384506845099011e+00) (14, -7.20968998078291511966e-01) (15, 2.90773715629663964677e+00) (16, 6.86832686466492159383e+00) (17, 2.31539661786589068271e+00) (18, 2.19235806888970685691e+00) (19, 5.35089894569008883707e+00) (20, 8.69370079885564450706e+00) (21, 9.43357319857190645962e+00) (22, -1.91921767076856220058e+00) (23, 1.40669136929999787355e+01) (24, -8.71500288352204108833e+01) (25, -3.55559741294833457914e+01) (26, 1.23570435978058483784e+01) (27, -7.93087958257877900792e+00) (28, 1.16072371642834752947e+01) (29, 1.40610065620684459020e+01) (30, -7.04462578829552210635e-02) (31, 1.56742876335921188513e+00) (32, 1.35683266604539181088e+01) (33, 2.88432783819370186507e+01) (34, 1.53038386568369766394e+00) (35, -1.26362242692354094231e+01) (36, 1.24758990409759178419e+01) (37, 1.50858220770897766272e+00) (38, -3.02854905690998705836e+01) (39, -1.70292642700107649034e+02) (40, 2.88241488970451271712e+01) (41, 2.79390948843161126547e+01) (42, 1.54669394656958480994e+00) (43, -7.80056898754322602940e+00) (44, 1.47601040765585800330e+00) (45, -1.70352678077848509020e+02) (46, -6.82936557961041756926e+01) (47, -6.82316691187555619535e+01) (48, -6.83779679593975373564e+01) (49, -6.82479837146932908354e+01) (50, -6.84011971709663697538e+01) (51, 1.62876243457140823523e+00) (52, -6.83685548735196420012e+01) (53, -6.83116791379983254728e+01) (54, -6.82576313821012803373e+01) (55, 2.91364370903807445856e+00) (56, 1.02102852618781483329e+01) (57, 1.30975889730776118292e+00) (58, 3.72866729094819215895e-01) (0, 9.28163874534340216371e+00) (1, -3.76536330805318120163e-01) (2, 1.94049107904726247931e+00) (3, 3.92512112921814892985e+00) (4, -5.39735679991991956772e-02) (5, -3.37595948843022952701e+01) (6, -2.55539413823160854733e+00) (7, -8.40674507836792628268e+01) (8, 2.13294909647563368793e-01) (9, 7.40239556141332633032e-01) (10, 1.01171728334519994696e+00) (11, 2.75311202904158613958e-01) (12, 3.95143634146790478923e+00) (13, -1.12710379904995341982e-01) (14, 3.91465080222825978495e+00) (15, 3.88535628533701871135e+00) (16, 9.31247599509124945882e+00) (17, 1.06612001638427114636e-01) (18, 1.57000375362788324729e+00) (19, -2.60322243107164386089e+00) (20, 9.28306807962627722475e+00) (21, -6.62571615692552490229e-02) (22, 2.42434091185824378556e+01) (23, 2.92902921789752435089e+00) (24, 5.45285876065550123570e+00) (25, 8.86108967669442915138e-01) (26, 9.29099729743366431478e+00) (27, 6.76626855911633029450e+00) (28, 2.58821320961161438490e+00) (29, 2.25022397698138298949e+00) (30, 4.65046580106329765503e-01) (31, 4.12437123572363706359e+00) (32, 9.35908211853866767171e+00) (33, 9.33644697901373099569e+00) (34, 3.77864350918179869865e+00) (35, 6.63608909084928466626e+00) (36, 4.00633556162848325499e+00) (37, 3.93952461099161954650e+00) (38, 1.58236550150313437513e+01) (39, 9.31758692946796607259e+00) (40, 1.22803599043277422709e+01) (41, 3.63798475087386385951e+00) (42, 3.98169584339394422301e+00) (43, 9.33125393178825568441e+00) (44, 4.03934103017582746276e+00) (45, 2.97936694472126930577e+01) (46, 4.41007289192840989944e-01) (47, 5.03407689831421478743e-01) (48, 3.14484658739731193222e-01) (49, 3.75664058230087694046e-01) (50, 3.71551985941097673294e-01) (51, 4.08319193636908472911e+00) (52, 4.67462795875236925003e-01) (53, 4.43624797365829881546e-01) (54, 3.78285589716598924515e-01) (55, 4.02645341074004026183e+00) (56, 3.04004588178067691739e-01) (57, 1.42823387961402287205e-01) (58, 6.68081654594496060495e-02) (0, 7.74431683145067883967e-02) (1, -9.82142846964443205771e-01) (2, -2.24820750034087968316e+00) (3, 1.60245846719487006204e+00) (4, 1.59499457986100012796e+00) (5, 3.28079507945035553362e+00) (6, 2.10918988912334581798e+00) (7, 1.69338670211740094373e+01) (8, -5.79553838366537732441e-02) (9, -7.86961509690652434301e+01) (10, -1.84380419661013981170e+01) (11, -2.17336592479509560505e+00) (12, 7.59204206654259028397e+00) (13, -4.06109414772781840419e-01) (14, 3.70242809170042130873e+00) (15, -2.46974526937268790139e-01) (16, 1.14969117215047794689e-01) (17, 1.52718762070877711601e+00) (18, 8.21170538221028478709e-01) (19, 1.98670086889495989269e+00) (20, 1.53731752694590295683e+00) (21, 1.69756209614582616041e+01) (22, 1.79046820425569066515e+01) (23, 6.75974532914675219075e+00) (24, -7.85874166668425147009e+01) (25, -7.86167215139637534094e+01) (26, 1.25040905776408806105e+01) (27, -6.03952751968862155962e+00) (28, 1.25881993400839462538e+01) (29, 1.24512304517415657301e+01) (30, -2.43308839416816247159e-01) (31, 1.65250566591079017797e+00) (32, 6.99014539227630837814e+00) (33, 1.24213161098745956679e+01) (34, -1.30172361635754985087e+00) (35, -2.72705726567906481250e+01) (36, 7.30321321492741404313e+00) (37, -5.43687481945228423541e-01) (38, -1.70314739162655428117e+02) (39, -1.70409465225966528124e+02) (40, 1.24223004467371609394e+01) (41, 1.24253565522817268629e+01) (42, 1.63433057059104225317e+00) (43, -8.73020416854842373766e+00) (44, 1.16457617567556726001e+00) (45, -1.70311283091636255449e+02) (46, -6.83400446457202264128e+01) (47, -6.83288384435112305937e+01) (48, -6.82336310950453110991e+01) (49, -6.82619083729917832670e+01) (50, -6.82520569471056290922e+01) (51, 1.56021659065539619604e+00) (52, -6.83124628198678323088e+01) (53, -6.83080782127911874113e+01) (54, -6.83218501192862817106e+01) (55, -6.30230960016918140276e-01) (56, 7.85485676641364616302e+00) (57, 1.64274006099446023832e+00) (58, 2.33733408419535382272e-01) (0, 6.20125158636935895629e-03) (1, 4.47436477282077083029e-01) (2, 1.74918886389444278029e-01) (3, -4.24608079275354682869e-02) (4, 6.79392927548388564363e-02) (5, 4.10421230589552621382e+00) (6, 1.84324056448842310552e+00) (7, 1.96071469449008439767e+01) (8, 4.98448427307064623193e-01) (9, -3.97292022843174108537e-01) (10, 2.79818814602646614986e+00) (11, -2.46995400152069000121e-01) (12, 3.84598377526852719388e-02) (13, 2.36690358126831618124e-01) (14, 1.02043944721024001931e-01) (15, 2.73778646590646483616e-02) (16, -3.08062759204061187290e+01) (17, 6.94375600526729694524e-04) (18, 2.60462301293149407766e-02) (19, 6.09300458393565502746e-01) (20, -6.86616761591507196449e-01) (21, -6.12026041674594914466e-03) (22, 5.98986698001914952272e+00) (23, -8.33339748885704278969e-01) (24, -1.39645023554174563252e+00) (25, 1.73846481058816448861e-01) (26, 2.08522568867504087819e+00) (27, -1.52401517905744849912e+01) (28, 1.88524661412509875191e+00) (29, 9.34767707055887520085e-01) (30, 8.45599475130778932552e-01) (31, -9.30250538206231425420e+00) (32, -1.22168684596967160871e+01) (33, -4.65135532749281210840e+00) (34, -9.18860491430890391484e+00) (35, -1.11882868605634243409e+02) (36, 1.99979854972063986196e+00) (37, -9.18221499836575816289e+00) (38, -1.70293621989520147508e+02) (39, -1.21771057294038449470e+01) (40, -1.82049525423696394455e+01) (41, 9.09344075983843147526e-01) (42, 4.16788105806247877183e+00) (43, -6.78728365190700202447e+01) (44, -3.58624017820839124937e+00) (45, -1.70263416456611707872e+02) (46, 3.08021782446993075411e-01) (47, 3.91369408477438174287e-01) (48, 4.75121168900621615450e-01) (49, 4.90429295707834445039e-01) (50, 4.64000238586557589571e-01) (51, -9.21415128624570201055e+00) (52, 4.16054098416460238496e-01) (53, 4.89699794460428439180e-01) (54, 3.11915776241911135713e-01) (55, -4.80478088531351659185e+01) (56, 9.18146150932056981375e-01) (57, 1.13509085144708532500e-01) (58, 1.46990904975813380107e-01) (0, 4.40313982153541561004e-01) (1, 1.12289878675136622910e+00) (2, 4.47135496328689430179e-01) (3, -1.32343749186521725258e-01) (4, -6.36278072336198485814e-01) (5, 1.69003888909988364553e+00) (6, 1.54318809556908353997e+00) (7, 4.74381924939878718561e+00) (8, 3.55331640074573185117e-01) (9, -3.38049164473628804828e+00) (10, 5.60013051983861864791e-01) (11, -4.66538241381377449812e+00) (12, 5.78455651486522781646e-01) (13, -2.82840925250625839504e-02) (14, 1.26793603345661365367e+00) (15, -2.24840049566215754995e-02) (16, -3.31302006384510505654e+01) (17, 9.72792517250636867843e-02) (18, -5.25909936042385783850e-01) (19, 4.55352263832695003387e-01) (20, -2.45420727324094434252e+00) (21, -6.83777213315245990799e-01) (22, 2.98747000916891067845e+01) (23, -2.52944900084487898084e+01) (24, 1.17454147791467686801e+01) (25, 5.62612033559361623958e+00) (26, -6.82098283526832886992e+01) (27, 9.73393080701969459767e+00) (28, 1.77343187152426429165e+00) (29, 8.32050099183864300123e-01) (30, 1.12210119332915159163e+00) (31, -6.83287017104561158476e+01) (32, -5.95371696831957777363e+01) (33, -3.61829309831496859218e+00) (34, -6.82489822713072129545e+01) (35, 1.10649972966002572150e+01) (36, -3.23196190968230681051e+01) (37, -9.50888516511001711251e+01) (38, -1.53279944725772594438e+01) (39, 2.46793115313116251386e+00) (40, -1.81798835464071864010e+01) (41, 2.11896704178661732243e+00) (42, -6.82685995010073014555e+01) (43, 9.70793634226463630910e+00) (44, -4.50165930379232861469e+01) (45, -1.89339944680907912300e+01) (46, 6.02199746057147233813e+00) (47, 6.14234857395047395556e+00) (48, 6.08214463427418916552e+00) (49, 6.05290153011435716479e+00) (50, 6.16572865977639406054e+00) (51, -6.82598598656589814482e+01) (52, 6.06708665325993745654e+00) (53, 6.14596073463315217822e+00) (54, 6.10347248747700898974e+00) (55, -1.70388624417217329210e+02) (56, -1.20025343253811797695e+02) (57, 5.63065106356746780669e-01) (58, 5.04757428849346156952e-01) (0, -7.14125146149785727800e+00) (1, 3.37873382688792300854e+00) (2, -4.59678382831065213132e-01) (3, -7.06482748120219916643e+00) (4, 9.72600762848708444430e-01) (5, 4.28913350461854303575e+00) (6, 9.63995962858607313706e+00) (7, 2.97102659120254486425e+01) (8, 1.03872118260447998672e+00) (9, 1.68392307583712597108e+00) (10, 1.00975410168123396204e+01) (11, -7.37477716175990671843e-01) (12, -5.58100014580771475181e+00) (13, 6.75246141256462539815e-01) (14, -6.71954837125853199353e+00) (15, 1.15035461749618050931e+00) (16, -1.56524696847262525523e+01) (17, 1.07558629777019043594e+00) (18, 1.84046160435562211610e+00) (19, 4.26419074146880472398e+00) (20, -4.87613306859767392520e-03) (21, 3.02855276442290577421e+00) (22, 2.97257762401394813878e+01) (23, 5.99917382854402880810e-01) (24, -1.41082832872478625141e+00) (25, 1.99443338758961075108e+00) (26, 6.87529773440740683554e+01) (27, -5.68029457966032964578e+01) (28, 1.18613345818786886099e+00) (29, 2.48045200589060357288e+01) (30, 1.97438338179771442071e+01) (31, 6.93346884663571074725e+01) (32, 4.00682081269283063563e+00) (33, -2.90313322155236930300e+00) (34, 6.92202620434929087878e+01) (35, -1.70298406990798071092e+02) (36, 6.92060415934194281817e+01) (37, 6.92619790549744323016e+01) (38, -7.72402865716904187821e+01) (39, -1.70326641748281076616e+02) (40, 1.56083883328210104580e+00) (41, 2.49550683903455308155e+01) (42, 6.93613802309502318622e+01) (43, -6.83145034370357819853e+01) (44, 6.93653080727328017474e+01) (45, -7.73437580743521237991e+01) (46, 7.29577438486187901390e+00) (47, 7.28921109390824284446e+00) (48, 7.35542841581075634849e+00) (49, 7.31504953978031124961e+00) (50, 7.32246755388944592369e+00) (51, 6.92947641875017836810e+01) (52, 7.41954935667484249961e+00) (53, 7.35377578017681088340e+00) (54, 7.31000225571363415611e+00) (55, 4.67743949488376813406e+01) (56, 2.91777021966509693129e+01) (57, 1.14092015590255257962e+00) (58, 9.95071710308241930143e-01) (0, 2.08419393770946070887e+00) (1, 1.30659455017868175730e+01) (2, 5.03434070676032074942e+00) (3, 1.04907289426176331126e+00) (4, 1.41808320172817914351e-02) (5, 4.01237358140010602625e+00) (6, 4.00956492113132245692e+00) (7, 4.44361262076286180900e+01) (8, 1.52387369407187689418e+00) (9, 2.00141992152278547223e+00) (10, 5.92227987137509792603e+00) (11, 1.21290996204464218700e+00) (12, -8.56002894417184245768e-01) (13, 3.98774030791778377747e+00) (14, 5.32127227483448650425e-01) (15, -8.80731775684447604213e-01) (16, -1.31588285489516252369e+01) (17, -2.54037487915961535112e-02) (18, -1.08216561396273402984e+00) (19, -1.07853879165925731209e-01) (20, -8.15090546682942562740e-01) (21, -7.14716311642210939681e+01) (22, 2.48276618505506618817e+00) (23, -3.19469110723489500003e+01) (24, 1.25166430997637405653e+01) (25, -3.14328795729738796894e+00) (26, -7.14948194348495462691e+01) (27, 1.00380669586549728933e+01) (28, -1.70395467365713670915e+02) (29, -1.70341663169296339220e+02) (30, -1.56263378663716068218e+00) (31, -3.05158528912246396203e+01) (32, -7.15669707940202215468e+01) (33, -7.15904790857117632186e+01) (34, -2.34763077207105972377e+01) (35, 3.77653520612363635678e+00) (36, -3.05052279758632352014e+01) (37, -3.06031923073709180017e+01) (38, 1.88858393655037382075e+00) (39, 1.24132662865308418532e+01) (40, -7.14404917308371523177e+01) (41, -1.70269564034970358080e+02) (42, -3.05947594049751927514e+01) (43, 1.00226723604093521658e+01) (44, -2.95681177192749800042e+01) (45, 2.55195714123347316971e+00) (46, -3.14472545741659725849e+00) (47, -3.18939151673180187885e+00) (48, -3.23219599633080090229e+00) (49, -3.08244730590445126239e+00) (50, -3.09275218902689541522e+00) (51, -3.04775086942494084497e+01) (52, -3.14531716017586315814e+00) (53, -3.11384289024931515399e+00) (54, -3.06380648969275082294e+00) (55, -1.28890267691666409178e+01) (56, -5.66520969395964968385e+00) (57, 5.14856171198876111372e-02) (58, 5.56681037801683764599e-01) (0, -5.76182319286680288961e-01) (1, 9.75361546397616407944e+00) (2, 1.11404339265483609545e+00) (3, -9.24673051164670689595e-01) (4, 1.18256338800971505520e+00) (5, 9.63262328029086134507e+00) (6, 9.64093464881588957383e+00) (7, 8.75375006798436494648e+00) (8, 1.11989321674888131497e+00) (9, -1.14789614918393256815e+00) (10, -1.34531916993876210498e+00) (11, 4.68790520419694978216e+00) (12, -3.46662188927857641829e+01) (13, 4.62114876945831376531e+00) (14, -2.17666130859474105108e+00) (15, -9.46780078635735988790e-01) (16, -5.67497561091724378457e+01) (17, 1.13813739385192391751e+00) (18, -8.55730072186513424093e-01) (19, 9.72422658920695326401e+00) (20, -7.10059102067620173671e+00) (21, -1.49120117055774787929e+01) (22, 1.75466974812301756970e+00) (23, -2.99589187891014354648e+01) (24, 2.87868268526725685774e+01) (25, -5.11916071997062616106e+00) (26, -1.70355007557751491731e+02) (27, -1.56718192932965898478e+01) (28, -1.70405765267642095750e+02) (29, -1.70269096719654157823e+02) (30, -1.20829592432452628259e+01) (31, -9.50745548437514429452e+01) (32, -9.50125913302579050423e+01) (33, -1.70249108063610151476e+02) (34, -9.49549893344917421700e+01) (35, -1.21875223718788348037e+01) (36, -1.70214727404149130052e+02) (37, -9.49122973139562731149e+01) (38, 6.93570038940180495501e+01) (39, 3.05762307255748027046e+01) (40, -1.70368589645804718202e+02) (41, -1.70289719874592378801e+02) (42, -9.50315033997573976876e+01) (43, -1.56554091473879957164e+01) (44, -9.51077454890289430978e+01) (45, 6.92115479301084235431e+01) (46, -9.89317276699959258224e+00) (47, -9.96442938222109297897e+00) (48, -9.85687055809914092208e+00) (49, -9.90466430409370879318e+00) (50, -1.00384454168242118755e+01) (51, -9.49642698074855928780e+01) (52, -9.96282765640436629440e+00) (53, -9.96943817658840636398e+00) (54, -1.00164050720494888225e+01) (55, -4.49363619748553730915e+01) (56, -3.00002111198472292131e+01) (57, 1.07138911004846115738e+00) (58, 1.14037902023379800198e+00) (0, -9.27811181967475695487e-01) (1, 3.46545795668345268936e+00) (2, 1.08629769202058334976e+00) (3, -7.04182521431834906878e+00) (4, 1.15888681248628763742e-01) (5, 9.66115737229992888047e+00) (6, 3.50101955552082833023e+00) (7, 8.68617362234523149311e+00) (8, 1.04471254836504479080e+00) (9, 3.72672865359780924877e+00) (10, 2.38061259479011777529e+00) (11, 1.80673327282869472521e-01) (12, -7.27431665741394617442e+00) (13, 1.10891336317842026382e+00) (14, -3.14002708814948050531e+00) (15, -4.66807942753156845939e-01) (16, -2.23067631646170170256e+01) (17, 9.58311520375844522190e-02) (18, -1.74274941569165364719e+00) (19, 3.44504803736191567154e+00) (20, -7.05563380002172202410e+00) (21, -7.32395533107708551768e+00) (22, 6.06308836481738566704e+00) (23, -7.10991097792179793657e+00) (24, 1.25377813654926910658e+01) (25, 1.87204243598110386948e+00) (26, -7.15383997508566835677e+01) (27, -2.23791596553399116942e+01) (28, -1.70251069905789449876e+02) (29, -1.70254774528177335924e+02) (30, 1.20897720776574004731e+01) (31, -1.93083904494024261034e+00) (32, -8.88178563394285092158e+00) (33, -1.70301884526939943498e+02) (34, -8.61379607637963840006e-01) (35, -2.23227366580738575408e+01) (36, -3.60500287818836895326e+00) (37, -2.61317479221247417343e+00) (38, 7.85272711380982313401e-01) (39, 8.65187778085933612005e-01) (40, -1.70344502406747892564e+02) (41, -1.70279246660502508348e+02) (42, -1.94236098785377486742e+00) (43, -2.22620909138693363616e+01) (44, -2.56313126517556888473e+00) (45, 6.24731820447064545299e-01) (46, -6.03452497445263746911e-02) (47, -9.08096370326660906613e-03) (48, 5.49208882225371564090e-03) (49, -1.47786191227308738583e-01) (50, -1.47335466968201433957e-03) (51, -2.52803048102282268417e+00) (52, -9.36148935280957106286e-02) (53, -1.86034614714256307799e-01) (54, -5.92505508385815504724e-02) (55, -2.58428455500029308212e+00) (56, 5.46473302799642901562e-01) (57, 9.86744308133769121305e-01) (58, 1.07300257798020859390e+00) (0, 2.93411357404312567176e-01) (1, -3.75288797534942730749e+00) (2, -9.93761396071422553611e-02) (3, 3.36678653009596384749e+00) (4, 2.13850591322398742022e+00) (5, -9.89759055517584052097e+00) (6, -4.56704868336703828646e+00) (7, -7.41777950048126939464e+01) (8, -3.17768211034877290366e-01) (9, 1.34859995711275573171e+01) (10, -3.53718150825510946333e+01) (11, 4.43592570809125330555e+00) (12, 3.82131138946396387013e+00) (13, -4.21146422962502819942e-01) (14, 4.29936578315122594485e-02) (15, 2.68560153400960843761e-01) (16, 2.25712636281518506109e+01) (17, 5.07518742400632216771e-01) (18, 7.96397975171422345397e+00) (19, -3.45066586999042024253e-01) (20, 1.59562581979147459776e+01) (21, 1.05476787215944121101e+01) (22, -1.04916830093460418993e+02) (23, 2.24094356541304158270e+01) (24, -1.70268274354370191759e+02) (25, 2.71991231424539492423e+01) (26, 2.98325136526517837865e+01) (27, 6.85362575979849353303e+00) (28, 2.97339455521695583684e+01) (29, 2.93701778705244009871e+01) (30, 1.32199813936803813874e+01) (31, 2.24983812962441014349e+01) (32, 2.24994575698642300665e+01) (33, 2.98551054819517105443e+01) (34, 2.13861119166846549433e+01) (35, 5.40398494650268190753e+00) (36, 2.98602916373901337010e+01) (37, 2.24195991326837109625e+01) (38, 1.13594868908036672472e+00) (39, -1.18760615103347255683e+01) (40, 2.97485362178676098210e+01) (41, 2.93034064377670233625e+01) (42, 2.25543474127320813238e+01) (43, 5.52236984793686502826e+00) (44, 2.25884902645616101324e+01) (45, 2.20857226089972408234e-01) (46, 4.45885808025240208963e+01) (47, 4.47121590976356770852e+01) (48, 4.46604511071681287149e+01) (49, 4.45923661519526746133e+01) (50, 4.46622022841810490945e+01) (51, 2.24222434405951069891e+01) (52, 4.46385985840796735147e+01) (53, 4.46010054093539025644e+01) (54, 4.45840842877268102029e+01) (55, 2.24266714622048901617e+01) (56, 2.25892292429475354254e+01) (57, 2.80496367014392122829e-01) (58, -1.00316353306261318856e-01) (0, 2.79869916403145690964e+00) (1, -6.29793031486007570674e-02) (2, -4.13516309329420295171e-01) (3, 2.41217256849327865709e+00) (4, -5.32983947051128392758e+00) (5, 1.14696326499493377327e+01) (6, 3.95581123118213096035e+00) (7, 7.01316423544328504391e+00) (8, 1.31282043694092021013e+00) (9, -2.48316686508013972912e+00) (10, -1.66141511650226281205e+00) (11, -2.56399497868442090009e+01) (12, 4.23578526310026060031e+00) (13, -6.14024461816656952351e+00) (14, 4.14409617564975629733e+00) (15, 1.25718216835094676043e+00) (16, -4.76804262226636943467e+00) (17, 1.19041579453779400311e+00) (18, 1.28861226378513560320e+00) (19, 7.29528433643476414971e-01) (20, -1.98770942910898207323e+00) (21, 4.69418682828986977285e+00) (22, 8.34900457318717093003e-01) (23, -1.70755826591929338321e+00) (24, -4.05423965855601853292e+00) (25, 4.23408995695265355508e-01) (26, -9.35364184594285319463e+00) (27, 8.97132053404780194228e+00) (28, 2.88356389216713822066e+01) (29, 2.89397523067526734053e+01) (30, -1.70300442072184637254e+02) (31, -9.92244131602052448216e+01) (32, -9.28429348087441752568e+00) (33, 8.13789613451793414356e+00) (34, -9.93020705841187236729e+01) (35, 1.33588111939173526110e+00) (36, -9.37040242618453333989e+00) (37, -9.91939951292876003208e+01) (38, -1.70279479833872869676e+02) (39, -7.51390527285805802649e+01) (40, -6.54228083369643442779e-01) (41, 2.88177770338587677657e+01) (42, -9.92001262269619701328e+01) (43, 6.57927132127098079906e+00) (44, -9.92643908001188037815e+01) (45, -1.70391716221900537676e+02) (46, -5.15479757844804264977e-01) (47, -6.37114345490335076683e-01) (48, -6.05368151723741254600e-01) (49, -5.47146811544297562158e-01) (50, -6.91770135819314568870e-01) (51, -9.92688719220165012302e+01) (52, -5.43598412930367813622e-01) (53, -6.41374337881206124656e-01) (54, -6.38623695283530801170e-01) (55, -1.70374813730450227922e+02) (56, -1.70263335409195974535e+02) (57, 1.19681037454439342937e+00) (58, 1.26588577269150004412e+00) (0, -1.57288072144637025573e+00) (1, 2.76389873936462637793e-01) (2, 4.65377174724014644469e-02) (3, -5.35714781331138145681e-01) (4, 4.77732229441011291282e-01) (5, 2.43457916523265982534e+00) (6, 3.37510929323813546610e-01) (7, 1.68545327425060875726e+01) (8, 8.56977292099227322408e-02) (9, -1.59424515629974923314e+01) (10, 2.24285132555506798724e+01) (11, 9.54892155618851989907e-01) (12, -1.43463601058373368957e+00) (13, 5.23891733902099754339e-01) (14, -1.43749454503903306701e+00) (15, 3.63123355054207688775e-02) (16, 1.90407653280883243374e-01) (17, 2.32856366852783130961e-01) (18, 2.35618812771434094078e-01) (19, 2.68827800864053845231e+00) (20, 1.22401777724288937654e-01) (21, 3.69245246279314098814e-01) (22, 2.37297621185265015242e+01) (23, 1.99997560449294975449e+00) (24, 1.80096248694611160701e+00) (25, -7.49430696028826730526e+01) (26, 4.94520406654064270668e+00) (27, -7.48377902093885438717e+01) (28, -1.11757158308258325974e+02) (29, -1.70342084670992448991e+02) (30, 2.97645740657143562657e+01) (31, 2.46016022785697430209e+01) (32, 4.88348655631725403481e+00) (33, -4.96631668855581231981e+00) (34, 1.61110001607194313067e+01) (35, -3.14533518507909803930e+01) (36, 1.29742259582535428564e+01) (37, 1.60771216182365783709e+01) (38, -4.88952462504741891536e-01) (39, -2.22365421428455860564e+01) (40, -7.74763273223581849791e-01) (41, -1.70312577995093420213e+02) (42, 2.44342319890056103304e+01) (43, -6.77868955172971396905e+01) (44, 1.61145777060046562212e+01) (45, -2.44079955989733221600e+00) (46, -9.49308321084060793282e+01) (47, -9.50694321933367376687e+01) (48, -9.49334813560524111153e+01) (49, -9.49417258258142595650e+01) (50, -9.51068946327247743966e+01) (51, 1.60285041807546981829e+01) (52, -6.82999858540828057585e+01) (53, -6.82363466975624390898e+01) (54, -9.49240244533100252511e+01) (55, 1.61720836116328605669e+01) (56, 2.98824672176532715184e+01) (57, 2.27642107824348377543e-01) (58, 1.44467474296028186576e-01) (0, -3.44007411129963935892e+00) (1, 2.70389414305539688144e+00) (2, 1.49679434474743788819e+00) (3, -3.44416738577378334085e+00) (4, 1.48717075761593764405e+00) (5, 1.05048940062985152188e+00) (6, 1.01932058960661620084e+00) (7, 3.87320149179283657048e+00) (8, 1.38263819541968246973e+00) (9, 1.06565834311149210123e+00) (10, 1.10340445108671181274e+00) (11, 3.25538920934415471065e-02) (12, -1.39996668684253329218e+01) (13, 7.55040081780196370431e+00) (14, -5.55744793224828104172e+00) (15, 1.46222177323140090088e+00) (16, -1.15493022186843639076e+01) (17, 1.39997553255595108546e+00) (18, 5.66965622044831807358e+00) (19, 9.37451084669275047645e+00) (20, 1.37648680981434723414e+00) (21, -1.98113932644154577822e+00) (22, 1.59913091906188609137e+00) (23, 1.82038539904291485350e+00) (24, 1.15637277293748468310e+01) (25, -1.96684887642481709413e+00) (26, 1.82477212002382671585e+00) (27, -4.45449082715326696302e+01) (28, -1.01042861939097328161e+01) (29, -2.97612875064449298179e+01) (30, 2.88716157637171662032e+01) (31, 6.88420373376987555503e+01) (32, 3.21689091231753998557e+00) (33, -2.97380904813842761314e+01) (34, 6.87929532405517676352e+01) (35, -2.23248749151005299041e+01) (36, 2.16788609838197210422e+01) (37, 6.86761137050173857688e+01) (38, 6.55654848854052829665e+01) (39, 7.84363941968091360479e+00) (40, -2.90110845460570043741e+00) (41, -2.96900559251742279798e+01) (42, 6.88301452275894263266e+01) (43, -4.45699132097774892713e+01) (44, 6.87038215350888350486e+01) (45, 6.97299373865092064761e+00) (46, -5.59304175052463214968e-01) (47, -6.31027327004491711548e-01) (48, -5.34622964534579914186e-01) (49, -6.26782559875070477418e-01) (50, -5.71137261662303608034e-01) (51, 6.86871816691539862632e+01) (52, -5.25994134220897358034e-01) (53, -5.08149174127399128054e-01) (54, -5.49622130665599506472e-01) (55, 6.88341126170538046836e+01) (56, 6.91854137967694953204e+01) (57, 1.34949803155101677454e+00) (58, 1.47496764537133162598e+00) (0, 2.74322660038485766076e-01) (1, 1.77502703536457251410e-01) (2, 5.71022078044975511801e-01) (3, 1.91578571642476241932e-01) (4, 2.74761952799773223610e-01) (5, -7.53934272215662115713e+00) (6, -3.13909865425089540381e+00) (7, -4.48926605496606327961e+01) (8, 3.53491508023905803837e-02) (9, 9.59532377890478849203e-01) (10, 3.55336475068196877558e+00) (11, 2.58578889300676983964e+00) (12, -1.96809910260813580862e+00) (13, 3.50141145153309130134e-01) (14, -4.53346845358178929253e-01) (15, 3.26995684000265296465e-01) (16, 1.23733098460820833964e+01) (17, 3.00901676238737980640e-01) (18, 2.29296600320304855281e-01) (19, -1.92600937401864624743e-01) (20, 2.56214463939520520341e+00) (21, -2.00610133283512936941e+00) (22, 1.77549363677131211148e+00) (23, 1.48816710032590199253e-01) (24, 8.66828672936084032585e+00) (25, 6.75218829142900323070e-01) (26, 1.97287115334030344060e-01) (27, 1.22759297145990053934e+01) (28, -7.06948468071913538324e+01) (29, -1.70336238394113138384e+02) (30, 1.89176199306360648400e+00) (31, 3.12931250165102814442e-01) (32, 4.01855978499052857167e-01) (33, -5.15036597986373845259e+00) (34, 3.18007420132754181630e-01) (35, 2.97436091600947349889e+01) (36, 2.61786002050040100819e-01) (37, 2.48774922768471573598e-01) (38, 2.97030543907575577123e+01) (39, 1.23209909825113932413e+01) (40, -5.15824107982608581757e-01) (41, -1.70275001826317861742e+02) (42, 3.70020586381552551991e-01) (43, 1.23700416489032427592e+01) (44, 2.21223707626459931141e-01) (45, 2.97235400228791206700e+01) (46, 1.55656712316267187290e+00) (47, 1.67229878716461399790e+00) (48, 1.69225127809040287730e+00) (49, 1.58842844330064947300e+00) (50, 1.64533675276033619639e+00) (51, 2.35360051820872162587e-01) (52, 1.68042380921833256480e+00) (53, 9.47465723078868338192e-01) (54, 1.66624140553467015025e+00) (55, 4.56658157532142183754e+00) (56, 2.93260637677971114368e-01) (57, 3.38213222743235508716e-01) (58, 1.90832565249167307453e-01) (0, -2.69642194987318839505e-01) (1, 1.31401561137612338248e-01) (2, 2.14297623181249202728e-02) (3, 4.05064198265196878657e-02) (4, 2.82971116887216123104e+00) (5, 1.84306159335750563422e-01) (6, 6.64228956794396946384e-02) (7, 3.16775994130101268276e-01) (8, 1.93242893473300036966e-01) (9, 4.45647504855632092813e+01) (10, 3.92179983870979782523e+01) (11, 1.24478799133089701456e+01) (12, -3.71151649487925672233e+00) (13, 2.49499586132469641786e-01) (14, -1.11044396195126022775e+01) (15, 4.13164986494819808094e-01) (16, 1.52260606036220522697e+01) (17, 5.33574151901893056760e-01) (18, 4.67448709180223576087e-01) (19, 4.51178146087066467285e-01) (20, 2.93554020659808667659e+00) (21, 1.48834457428355326769e+00) (22, 1.21802650119643498527e+01) (23, 1.95127031521589451302e+01) (24, 3.92414556981917854728e+01) (25, 4.22191856941120313707e+00) (26, 8.69273161989812415129e-01) (27, 4.17494506204948834238e+00) (28, -6.61047972593115673590e+00) (29, -1.70350306174339607423e+02) (30, 8.27445824275551977678e+00) (31, 3.47884685271210258861e+00) (32, 3.78739359083179438770e+00) (33, -8.71086913624405267953e-01) (34, 3.52868696772284096141e+00) (35, 2.05728155776253718301e+00) (36, 9.65715101462964575774e-01) (37, 3.49202317469543999096e+00) (38, 2.97099369986944168431e+01) (39, 1.15757071869640615347e+00) (40, -4.64648529502500018395e+00) (41, -1.70303644167812421983e+02) (42, 3.50661705904430931469e+00) (43, 4.16287594849691799936e+00) (44, 9.06123599511746924406e-01) (45, 5.64532530454777692341e+00) (46, -1.70407457897992685503e+02) (47, -1.70230661096604421800e+02) (48, -1.70353781691374138063e+02) (49, -1.70283965351613119310e+02) (50, -1.70251952307851865953e+02) (51, 3.59025855087465828319e+00) (52, -1.70310482094617441362e+02) (53, -1.70366344532551124757e+02) (54, -1.70242705913813665575e+02) (55, 1.07878192856225290086e+01) (56, 1.21127894477496216297e+01) (57, 1.96694876391780015812e-01) (58, 1.92839593545588550150e-01) (0, 5.18204865308900863852e-01) (1, -1.75543301399440188071e-01) (2, -8.03524940726837583194e-02) (3, 4.22350917466382702603e-01) (4, 2.45160798150960909658e-02) (5, -3.27771860532937164834e-02) (6, -2.04291588510021639158e-04) (7, -2.98213812082649898372e+00) (8, 7.94678661759247867424e-02) (9, 1.07967855783879990161e-01) (10, -7.27154371258393217303e-01) (11, -3.90382137698507714063e-01) (12, 1.23548647566226641459e+01) (13, -4.04055264396047997266e-01) (14, 1.29532573959440377998e+00) (15, 3.56380815206604806278e-01) (16, 1.54085351961299066303e+00) (17, 1.82062266495949920397e-01) (18, 1.26309561629433603214e-01) (19, -1.30652594738183067125e-02) (20, 2.62266564269203916737e-01) (21, 2.23612776508609600867e+00) (22, 1.35468805709980948393e+01) (23, 5.14614130675890790734e-01) (24, -7.07444881183600244867e+01) (25, 4.16738737603018716271e+00) (26, 1.23586694105056444926e+01) (27, 5.58290100893309926278e+00) (28, 7.10598610005474000673e+01) (29, 7.11026594004726320009e+01) (30, -1.00063714033259282266e-02) (31, 1.23658425194860463470e-01) (32, 5.65626887317778548336e-01) (33, 2.97170751764469116551e+01) (34, 8.04335540362606932208e-02) (35, 8.59062843297760059258e-01) (36, 3.73309442661350521231e-01) (37, -2.69059026411761284536e-02) (38, -1.70329858223529413408e+02) (39, -5.40509909597270699066e+00) (40, 2.97334106824390858037e+01) (41, 7.09875083043372541169e+01) (42, -7.47219564235108296701e-03) (43, 1.63759140371479205989e+00) (44, 1.41810557194737507647e-01) (45, -1.70336385967763021654e+02) (46, 2.36987350697002838729e+01) (47, 2.37157524938068817733e+01) (48, 2.37181088144264649031e+01) (49, 2.36994100326977203963e+01) (50, 2.37125892753086517928e+01) (51, 1.66932409831295931746e-02) (52, 2.36272448117218445418e+01) (53, 2.36685989091477821944e+01) (54, 2.35888297522745560286e+01) (55, -3.92322857193532353870e-02) (56, -9.92951791592374261031e-02) (57, 2.30030639198548492175e-01) (58, 1.74003814704407872016e-01) (0, 8.41448655731227113108e+00) (1, -2.77997401127053489489e+00) (2, 3.15396483598082144617e-03) (3, 8.41211139417435838084e+00) (4, -2.68227644780112495226e+00) (5, -4.54551110635820965200e+00) (6, -2.81010525334176186618e+00) (7, -8.40022279615495364169e+01) (8, 1.35042932646545127406e-01) (9, 5.40263641393283933212e+00) (10, 1.29500407514371218554e+01) (11, -7.78445053641518036613e+00) (12, 8.75062800689915398777e+00) (13, -2.82300663137270202441e+00) (14, 8.84860280647257546605e+00) (15, 1.66535912033841193569e+00) (16, 5.01531648894280124296e+00) (17, 4.83410775831064759567e-02) (18, 1.92661885054509229853e+00) (19, -5.14439995811897254896e+00) (20, 2.48867777010271939986e+00) (21, 1.91370355187940099917e+00) (22, 2.44619984679044755183e+00) (23, 1.87171999247471876338e+00) (24, -1.61946546635179764451e+01) (25, 8.71334015415467710852e+00) (26, 9.38355348631595198583e-01) (27, 7.22200371442631716690e+00) (28, 2.88537535406284249007e+01) (29, 1.24397990184811249037e+01) (30, -1.24738641244376022854e+01) (31, -3.16442051956291869885e+00) (32, 5.76799207633926891425e-01) (33, 2.88307367600135719954e+01) (34, -3.13459262678261474377e+00) (35, 4.84982096320556976821e+00) (36, -2.27340006851801224030e+00) (37, -9.01264140147146175508e-01) (38, -7.86506259956429545355e+01) (39, 1.42909733986845410847e+00) (40, 1.39521368731842549948e+01) (41, 1.24488808105674877424e+01) (42, -3.25836699882384017712e+00) (43, 6.77674661157048685567e+00) (44, -9.44107325512346218233e-01) (45, -1.98571774892259895751e+01) (46, 8.07347298860096529438e+00) (47, 8.11044943779253557636e+00) (48, 8.06722496523999765827e+00) (49, 8.21600419729494646504e+00) (50, 8.05133709013008669331e+00) (51, -3.25024343335862830884e+00) (52, 8.09386430382275179340e+00) (53, 8.14073288887285784199e+00) (54, 8.15183003693365648701e+00) (55, -3.27955301532383636243e+00) (56, -9.44459879777818827051e+01) (57, 5.10111943056902467086e-02) (58, 5.43535992672762452438e-02) (0, -6.28268355111197496221e-01) (1, 1.11687827990848365101e-01) (2, -1.80384058162006873094e-02) (3, -4.96843637506083513067e-01) (4, 9.08853573305842266095e-02) (5, 5.81664529041019118250e-02) (6, 7.20564362004962599695e-02) (7, 3.57891518846631506712e-01) (8, 4.07256517099793047265e-01) (9, 4.80612460007850739174e+00) (10, 1.68145695343671448541e+01) (11, 1.41623762803625513618e-01) (12, -5.80095878787188934389e-01) (13, 3.58218106913025469140e-01) (14, -8.20046871905965035765e-01) (15, 3.84275856899674028710e-01) (16, -8.35499242932432120701e-03) (17, 5.95383608004549993997e-02) (18, 1.99387418083578106531e-02) (19, 4.54793955423861695486e-01) (20, 5.36899521240025823232e-01) (21, -1.10197976455352245062e-01) (22, 2.68880558914402989501e+01) (23, 6.23935304886640840216e-01) (24, 1.58452245570763516902e+00) (25, 1.21769201241182223328e+01) (26, 2.98010412528209656102e+01) (27, -7.49412451345084207333e+01) (28, 2.19900154880762477294e-01) (29, -1.16324423379771673126e+01) (30, 2.68796852088431386107e+01) (31, 7.10647987685298829774e+01) (32, 2.97319093643717735631e+01) (33, 2.74359350050526806797e-01) (34, 7.10114957130646615724e+01) (35, -1.11864885869404346863e+02) (36, 7.11148825100755601625e+01) (37, 7.11194452605342775087e+01) (38, -1.70398765797348573869e+02) (39, -1.21292653725770627204e+01) (40, 1.90366524599842978915e+00) (41, -1.17698500878684484405e+01) (42, 7.10510076991414933900e+01) (43, -7.48921817723272340572e+01) (44, 7.09988875127530008058e+01) (45, -7.05815001634454546320e+01) (46, 2.98417746945314377172e+01) (47, 2.97141676618747681005e+01) (48, 2.97650420217804878575e+01) (49, 2.97738504259877174718e+01) (50, 2.97597993611388176305e+01) (51, 7.11312773040628343324e+01) (52, 2.97033344804339378697e+01) (53, 2.98381722792081802709e+01) (54, 2.98661183788471191747e+01) (55, 7.09465849436020761232e+01) (56, 2.98386822118453949315e+01) (57, 5.86537682673434271341e-02) (58, 1.03707918296599088670e-01) (0, -1.84759715225650955617e+00) (1, 2.64275392518064977665e+00) (2, 4.11286592393337202545e-01) (3, -2.55505950651064583923e+00) (4, 3.74474048524318703368e-01) (5, 4.48977091453961651979e+00) (6, 4.88848035381996504078e-01) (7, 2.08600729000208602315e+01) (8, 9.92945353997224056108e-01) (9, 3.45487136240784664665e+00) (10, 2.76509373989853646236e+00) (11, 8.76068881623639827971e-01) (12, -2.65014129034176537658e+00) (13, 3.26394756725150891885e-01) (14, -2.57309019467726418640e+00) (15, 5.41394997218075268997e-01) (16, -3.15152875363659887853e+01) (17, 3.93738395123436113465e-01) (18, -2.63272656402483651306e+00) (19, 8.58402926040166103228e-01) (20, -7.11378445654304236712e+00) (21, -2.55334415933981606628e+00) (22, 6.90676313695327870334e+00) (23, -8.69584824523411903385e+00) (24, 2.96976573093824356420e+01) (25, 3.56080731857908450166e-01) (26, -1.70404546903999403185e+02) (27, -2.24157154112233669707e+01) (28, -1.70217978494794920152e+02) (29, -1.70326323310466364092e+02) (30, -4.56026289256047712151e-01) (31, -1.12132304382748557714e+01) (32, -5.67141422892156583657e+01) (33, -1.70254987435968473619e+02) (34, -1.12206229602224780706e+01) (35, -5.74965536695503587339e+00) (36, -7.14601007797997453963e+01) (37, -1.11494857629067851690e+01) (38, 2.55971317333437085040e+01) (39, 1.99249281497832209098e+00) (40, -1.70235842662485197252e+02) (41, -1.70361427171708896822e+02) (42, -1.10875168924457980779e+01) (43, -1.56382462655964040721e+01) (44, -1.12631780912406398443e+01) (45, 2.67989958079484935638e+01) (46, 3.47590180594814501802e-01) (47, 3.31319218982351504366e-01) (48, 4.27402562011373721162e-01) (49, 4.62530596662653170625e-01) (50, 3.71216102052820406954e-01) (51, -1.11102808897621585515e+01) (52, 4.56853418160570345918e-01) (53, 4.76444317508829318086e-01) (54, 4.98947082568300448457e-01) (55, -1.11142573391325427679e+01) (56, -1.11045463927640710722e+01) (57, 2.90717007534091131937e-01) (58, 2.62042613641802979441e-01) (0, 1.12612352645356006420e+00) (1, 1.64831926829965191850e+00) (2, 4.89375803561305389167e-01) (3, -8.17770239816320992920e-02) (4, -1.90134978907871649012e-01) (5, 2.18203196920961861593e+00) (6, 1.59001600789971098138e+00) (7, 1.12356274003738771938e+01) (8, 5.96016301089635769372e-01) (9, -1.69053193657375766534e+00) (10, 2.20762098154975250353e+00) (11, -2.52537030399750905829e+00) (12, 2.68539823794430032589e-01) (13, 9.14670099313569379129e-02) (14, 5.85715749568537003000e-01) (15, -4.55181600406796144087e-02) (16, -7.82512227991745845657e+01) (17, 1.03245332681803192454e-01) (18, -2.70503624397087527598e-01) (19, 6.39549000436178127771e-01) (20, -4.83977933193933562706e+00) (21, 1.42555519683557896382e-02) (22, 1.44820130568758695944e+01) (23, -3.32093150196749675729e+01) (24, 2.07560488399503455526e+01) (25, 3.64516862257744511666e+00) (26, -1.70359281788201883501e+02) (27, 1.14311697077024927438e+01) (28, -2.09970493398194485435e-01) (29, 2.67349695645826468393e+00) (30, -2.54455478095375156045e+01) (31, -1.11891695036521227280e+02) (32, -7.82631579140351192336e+01) (33, -1.33982801576055052806e+01) (34, -9.50122227649369364144e+01) (35, 1.99789631061893793174e+01) (36, -9.91876585147980449619e+01) (37, -1.11914572953214914719e+02) (38, -1.06561120935992494907e+01) (39, 2.57635311692623192314e+00) (40, -4.23294623325822740867e+01) (41, 2.62819146223919997141e+00) (42, -1.11804927094807894150e+02) (43, 1.12990244481731405557e+01) (44, -1.11777892484298021714e+02) (45, -1.14587829523671018705e+01) (46, -4.01036803554541521066e-01) (47, -4.30869531761652879709e-01) (48, -3.91611804198271684641e-01) (49, -4.83012651037222795480e-01) (50, -4.61364005636221818918e-01) (51, -1.11890126570096285263e+02) (52, -4.09606148432738237375e-01) (53, -4.27790624033457689279e-01) (54, -4.28393621872908525461e-01) (55, -9.62927652487620946431e+01) (56, -1.20068851969739398555e+02) (57, 5.77901820028431045806e-01) (58, 5.43963732505447494781e-01) (0, -1.10276319680299786374e-01) (1, -2.87872659630119143159e+00) (2, -5.75553223404146607756e-01) (3, 2.63044734044356076641e-01) (4, 2.36266584243362276485e-01) (5, -5.36816703297967490194e-01) (6, -3.26325524611159045740e-01) (7, -3.61277596862200933714e+00) (8, 2.28489794695352355092e-01) (9, -1.61545306124066789799e+00) (10, -7.85253763453136031103e+01) (11, -3.15226740001581018369e-01) (12, 5.25064634370002636388e+00) (13, -4.80251584373836692965e-01) (14, 6.22869522846768108870e-01) (15, 6.90274247719015465741e-01) (16, 1.23819459109095255656e+01) (17, 2.18052756531519675853e-01) (18, 3.82722152449392671869e-01) (19, 1.09427421308549627232e-01) (20, 2.14529910793582745399e+00) (21, 1.23585144458798090739e+01) (22, -1.70332614178391054338e+02) (23, 1.23272090135601679606e+01) (24, -1.70395898158283785051e+02) (25, 2.37372813934765289900e+01) (26, 2.98596021308593719823e+01) (27, 2.12162593362460988322e-01) (28, 2.97652270047955482823e+01) (29, 2.98055317848019569738e+01) (30, 1.03788629124300264550e+01) (31, 2.69990987113575009460e+01) (32, 2.98016819058947532994e+01) (33, 2.98153724147968262059e+01) (34, 1.49875297497164261529e+01) (35, -1.02536955824953270877e+01) (36, 2.98399562313251465184e+01) (37, 2.13898246304030692500e+01) (38, -1.70313019926281526750e+02) (39, -1.70296857426496103471e+02) (40, 2.97424088007800548894e+01) (41, 2.97671671955876320226e+01) (42, 2.13535948262448584956e+01) (43, 4.80360051196618786928e-01) (44, 2.68618910803357628936e+01) (45, -1.70299720133276537126e+02) (46, 5.60847626768504312622e+01) (47, 5.61757897578631570923e+01) (48, 5.60153399773393800842e+01) (49, 5.61476487063323190796e+01) (50, 5.61931848519002130615e+01) (51, 2.12549282253618514460e+01) (52, 5.60500019744490316498e+01) (53, 5.60716958336983850586e+01) (54, 5.61233939521466425049e+01) (55, 1.49144160921823036858e+01) (56, 2.68567821538905171508e+01) (57, 2.02645879729075217845e-01) (58, 7.83547693133104516949e-02) (0, -6.13575855862630437088e+00) (1, -4.42587690440188286090e+00) (2, -6.14696237884171381438e-01) (3, -1.35718834260766740840e+00) (4, 5.24905933166830873660e+00) (5, -8.69118594247442644019e-01) (6, -1.43289866919342090412e+00) (7, -1.33494603882256579475e+00) (8, -2.93406637867715397450e-02) (9, -1.00924468039218382387e+01) (10, -4.20942102473892809655e+00) (11, 6.71739433088351045598e+00) (12, -2.77432621986572702788e-01) (13, 1.69643714673685841454e+00) (14, -6.23789208602441380691e+00) (15, 1.61058929957318119897e+00) (16, 9.34242858811020404630e+00) (17, 1.70699014164376072777e+00) (18, 1.69755506910252385033e+00) (19, 6.80166312434721742619e+00) (20, 2.33225524069064640287e+01) (21, 5.20759693260281419924e+00) (22, -1.86657011738425815395e+00) (23, 2.39649813927445798356e+01) (24, -2.28300652022683046027e+01) (25, -9.50939281265416269662e+01) (26, 2.45305145307574719027e+01) (27, -1.11736984728803903977e+02) (28, -6.68251129341851268784e-01) (29, -1.11908618151178629319e+02) (30, 1.68179763495979912591e+01) (31, 2.45867173894439190462e+01) (32, 2.03019193779770930064e+01) (33, 6.05748543592817423331e+00) (34, 2.44939912854824513033e+01) (35, -9.49836387689390306832e+01) (36, 2.44961250051055401400e+01) (37, 2.45418109222445934847e+01) (38, -5.53745986445549860377e+01) (39, -1.30018431404890748126e+02) (40, 7.79700898004443487821e+00) (41, -1.11808164655199320237e+02) (42, 2.97956474497013061864e+01) (43, -1.11865581664225132386e+02) (44, 2.44382758735809773043e+01) (45, -1.70294221090705946153e+02) (46, -6.83158102167184182463e+01) (47, -6.84037605432207413969e+01) (48, -6.83610919212336369810e+01) (49, -6.83981156033809014616e+01) (50, -6.82569828835661240873e+01) (51, 2.45944020523820370272e+01) (52, -6.83305691910321542082e+01) (53, -6.83148173076445885954e+01) (54, -9.49220641608514910104e+01) (55, 2.46000035031829327181e+01) (56, 2.45120684205685108736e+01) (57, 2.97885246493215793961e-01) (58, -3.01021082218002278275e-01) (0, 4.14382473827204478312e+00) (1, 2.36986922715611036949e+00) (2, 1.89655724460296126743e+00) (3, 4.12484658957323802042e+00) (4, -1.89376053780369840718e-01) (5, 2.68880681406957933177e+00) (6, 4.01314233691296262663e+00) (7, 1.24721576872256889601e+01) (8, -4.41535604958376737272e-01) (9, -7.40546755127289060283e+01) (10, -3.84802325378184235660e+01) (11, -2.47785319671516424123e+00) (12, 4.12263832689127696085e+00) (13, -1.86412506942692135503e+00) (14, 4.07956379354796183634e+00) (15, -1.91731454451623295476e+00) (16, -5.91646386359354092832e+00) (17, 1.73141736829690429111e+00) (18, 1.80548990810327025791e+00) (19, -7.49164967279082660845e-01) (20, -7.67094739451048557299e+00) (21, 1.58947303466183775811e+00) (22, -5.81596250054974817090e+00) (23, -3.03306325728494341476e+00) (24, -1.56909664907168906467e+01) (25, -3.02654902337422875291e+01) (26, -1.30014253521623345478e+02) (27, 8.38835105893414123557e+00) (28, -7.58482408880123304407e-01) (29, 2.25579686780242489874e+01) (30, -1.29903483664902182682e+02) (31, -1.70402692812116697496e+02) (32, -8.81575640512648419644e+01) (33, -1.20427081508812006128e+00) (34, -1.70252134385140493578e+02) (35, 7.69921904377259380681e+00) (36, -1.70395191120536878771e+02) (37, -1.70213280218275144762e+02) (38, 2.59594870377677144901e-01) (39, -4.22349114887892174153e+00) (40, -9.20106849885117838994e+00) (41, 2.24480280299453305304e+01) (42, -1.70225669297011449999e+02) (43, 8.33738893863957031272e+00) (44, -1.70305343622894838518e+02) (45, -1.33411966073170651370e+00) (46, -1.70283023702533796495e+02) (47, -1.70212637009652212328e+02) (48, -1.70298213953705385393e+02) (49, -1.70386771435471132463e+02) (50, -1.70318565274210527605e+02) (51, -1.70232000472577169603e+02) (52, -1.70283509092958524889e+02) (53, -1.70276350739033773607e+02) (54, -1.70377080480189874834e+02) (55, -1.70305690276058271593e+02) (56, -1.70343827831180647081e+02) (57, 1.78613080376796218296e+00) (58, 1.48222887856571650111e+00) (0, 3.41308643567704894650e+00) (1, -8.42602968265240143131e-02) (2, 7.46062872421557110592e-01) (3, 3.42151878672981002438e+00) (4, -8.45468984331946005195e-02) (5, -2.92490641692751303371e-02) (6, -1.39419204199348445439e-01) (7, -5.43405047343516756087e+01) (8, 6.08508274352303063504e-02) (9, -9.62047891276078104283e+00) (10, -9.32643162897360156194e+00) (11, 1.92815203221426895164e-01) (12, 2.64487475252842330065e+00) (13, 1.02960090165182538424e-02) (14, 3.23403520578488379300e+00) (15, 3.33774167628891060833e-02) (16, 2.48486989918113643228e+00) (17, 3.34184798051795073359e-01) (18, 6.73221921834257885919e-01) (19, -3.30845720061854464689e+00) (20, -4.28567598680132458289e-02) (21, 3.73163505398325157092e-01) (22, -4.22391796563178658630e+01) (23, -7.54005821585998631251e-02) (24, -9.64642845796542047765e+00) (25, 9.41380138431878776828e+00) (26, -1.70239445599349096483e+02) (27, 1.33062360425446506440e+01) (28, -1.37276504475425120688e+00) (29, 3.73722623608025150688e+00) (30, -4.50235975224575497577e+01) (31, -1.70212924006016805833e+02) (32, -1.70330063367815569109e+02) (33, 1.08620740695211526194e+00) (34, -1.70298298510344579881e+02) (35, 2.25998171289233731329e+01) (36, -1.70379319014580801195e+02) (37, -1.70224682244093969530e+02) (38, 2.98378311171226471288e+01) (39, 1.22760192705777804179e+01) (40, -2.19732180824607610248e+01) (41, 3.87946800461920338066e+00) (42, -1.70221855464013174242e+02) (43, 2.13025588930483138483e+01) (44, -1.70327204013796404070e+02) (45, 2.98386052026443451268e+01) (46, -1.09470228805245177739e+01) (47, -1.09318337767423408025e+01) (48, -1.08249069928230063908e+01) (49, -1.08534809975923316472e+01) (50, -1.09344574167431609624e+01) (51, -1.70262878837616995042e+02) (52, -1.09355853973926322453e+01) (53, -1.08445211677850501530e+01) (54, -1.09287619321645514958e+01) (55, -4.49275363598069645832e+01) (56, -9.62339180002078649068e+01) (57, 6.06958384428460839821e-01) (58, -5.16851037347564878921e-02) (0, 1.18334816269762672647e+01) (1, 6.24436918028513776591e+00) (2, 7.00882091620508607122e+00) (3, 1.18316827885992683633e+01) (4, -3.20658760072702753163e+00) (5, 2.44609585278780894413e+00) (6, 1.19445094414241470560e+01) (7, -6.26522729878903061884e-02) (8, -1.61832101354432822404e+00) (9, 1.68323730558659545586e+00) (10, -4.35163196562600695927e+00) (11, -2.02578007467184484369e+01) (12, 1.17888564974255718454e+01) (13, -3.69848062533856181133e+00) (14, 1.17512874178774513467e+01) (15, -1.80294707694083444771e+00) (16, -8.33307477983161248858e+00) (17, 1.13635552132730452413e-01) (18, -1.56749727175861837403e-03) (19, -3.60753614624237917141e+00) (20, -9.88395147899639603395e+00) (21, -3.48623365550096320220e-01) (22, 3.98795738994923132381e+00) (23, -7.41428789205529454875e+01) (24, 1.73813099779428514857e+00) (25, 6.16881142911775626203e+00) (26, -7.40569976947881940532e+01) (27, 9.03776261649480083804e+00) (28, 8.09182123746707659961e+00) (29, 2.97246761693649261815e+01) (30, -1.20114089671125611858e+02) (31, -1.70393596264155462450e+02) (32, -7.40933033905603650737e+01) (33, -8.23992698884245311497e-01) (34, -1.70308554405899599260e+02) (35, 5.63237404690527476703e+00) (36, -4.49320479694804646442e+01) (37, -1.70310685897799089616e+02) (38, 7.32724685173218404088e+00) (39, 9.50061854630679469835e+00) (40, 1.54874093111803414757e+01) (41, 2.97306474893383949620e+01) (42, -1.70280171873601034349e+02) (43, 8.98792386494031170230e+00) (44, -1.70256128402979925340e+02) (45, 7.35466995786612187658e+00) (46, -6.77826361103138985698e+00) (47, -6.69189010305485787455e+00) (48, -6.76524187369427743022e+00) (49, -6.76624791069111886088e+00) (50, -6.80634227140030922953e+00) (51, -1.70388221921952322191e+02) (52, -6.79307006789527001445e+00) (53, -6.84060871346077981059e+00) (54, -6.73995591445050301616e+00) (55, -1.70302334318490579790e+02) (56, -1.20021538555225333766e+02) (57, 8.49044279583498595620e-01) (58, 7.20126783664402358998e-02) (0, 8.51940727135805708770e-01) (1, 8.88905292651323897246e-01) (2, 9.14297281107573134307e-01) (3, -3.44482398820380175675e-02) (4, -2.17725280232553525250e-01) (5, -1.51761759868243495397e+00) (6, 1.41649661428642548167e-01) (7, -5.44081449211175849356e-01) (8, 7.31533932920707188896e-04) (9, 2.97905673160247772557e+01) (10, 7.32077782181470837486e+00) (11, 2.17963411969256809497e-02) (12, -6.71478971653944101128e-01) (13, 1.84716337833195659579e-01) (14, 1.86558724099688794107e-01) (15, 4.31175794561771269509e-02) (16, -4.43815657740769520245e+00) (17, 1.55749073138357091439e-01) (18, -8.59420543763137922966e-01) (19, -1.12358960366089744021e+00) (20, -1.14113634072958686216e-01) (21, -2.90437078203778540342e+01) (22, 1.29754409040615570348e+01) (23, -2.90025269265990530698e+01) (24, 2.98135786502652138097e+01) (25, 2.97762593775086372716e+01) (26, -7.15953556248229006087e+01) (27, 1.11422703342735474052e+01) (28, -1.70384461666079118913e+02) (29, -1.70315402733715131944e+02) (30, -7.72810174686489315121e+00) (31, -7.15065374546926477706e+01) (32, -2.90980158548574721067e+01) (33, -1.70359710919292524522e+02) (34, -7.14134481796305635726e+01) (35, 1.94514212302626110507e+00) (36, -7.14630848565381029402e+01) (37, -7.14177881577294328963e+01) (38, 2.97239855377964943273e+01) (39, 2.98544644936017959935e+01) (40, -7.15216888585370043074e+01) (41, -1.70301027389796331590e+02) (42, -7.15188682996910074507e+01) (43, 1.91787931246867260349e+00) (44, -7.15819038027208307540e+01) (45, 2.98452108426980942113e+01) (46, 1.04913976440565370751e+01) (47, 1.04142729143039964868e+01) (48, 1.04628513405458711816e+01) (49, 1.04705756256716036035e+01) (50, 1.04437646219866060449e+01) (51, -7.15807358497064569747e+01) (52, 1.03331310028569482995e+01) (53, 1.03165393794314645959e+01) (54, 1.04474206665890001489e+01) (55, -1.92392559221190069252e+01) (56, -5.05907926272356007757e+01) (57, 1.18676918941607978386e-01) (58, 4.34769236402643532990e-01) (0, 4.08362348080477488566e+00) (1, -2.32552447825780328472e+00) (2, 3.56083978491044894632e-01) (3, 2.25313080345100846813e+00) (4, -1.08859903430261351076e+00) (5, -3.37177523707406479048e+01) (6, -1.42431105213018387445e+01) (7, -8.40140851954910914401e+01) (8, 2.62259232622930849033e+00) (9, 3.50343580415963540275e+00) (10, 5.79485114221838770732e+00) (11, -8.10777864746380472205e-01) (12, 4.05920602829060239713e+00) (13, -6.24278480259495838212e-01) (14, 4.09924988896450770426e+00) (15, 5.99617264745531741710e+00) (16, 2.15351605919508450881e+01) (17, 1.83474104003086502246e+00) (18, 4.06681474821783184304e-01) (19, -1.58975303720891663062e+01) (20, 1.94809581675262699640e+00) (21, -1.12301943548320992683e+00) (22, 3.93599841456312615762e+00) (23, 3.29024870472169772562e-01) (24, -4.88218794640826292408e+00) (25, 3.07033067992939390223e+00) (26, 1.50452853462138183005e+01) (27, 2.14999871683625691787e+01) (28, 5.78261465058950463458e+00) (29, 1.23432049480770054117e+01) (30, 4.65928082551829714220e-01) (31, 8.37518677813127965237e+00) (32, 2.16311780718473904983e+01) (33, 1.54434481372157570434e+01) (34, 8.38674595159605473782e+00) (35, 1.53813105185548302245e+01) (36, 6.25184640322313001093e+00) (37, 8.89444892942040787887e+00) (38, 6.94637493155841134751e+00) (39, 1.16422837827152818591e+01) (40, 2.88631400279335892378e+01) (41, 1.34915549131330276822e+01) (42, 6.15330792652464975134e+00) (43, 2.16559626368193143264e+01) (44, 8.38862048042133778836e+00) (45, 2.87990466393165505110e+01) (46, 1.02965992038803588748e+00) (47, 1.06178250258522499649e+00) (48, 1.00351289754467498661e+00) (49, 9.58238952809147503942e-01) (50, 1.03312044685440551639e+00) (51, 8.42597180557564229275e+00) (52, 5.82143089964771154321e-01) (53, 4.72972500368737724941e-01) (54, 1.07733229642467964737e+00) (55, 8.84309513582914696883e+00) (56, 2.07258085784138346153e-01) (57, 9.81199609150472107366e-01) (58, 1.85599592224731813062e+00) (0, -8.91557890153853227488e-01) (1, -9.92235868873217130570e-01) (2, 6.16322735934963228388e-02) (3, 1.33113431472066334749e-01) (4, 6.02103309903521211055e+00) (5, -1.92050864615492944409e+00) (6, -4.32530671445249303986e+00) (7, -2.52255557334076456755e+01) (8, 1.51060579219411877938e-01) (9, 9.76491184591398564407e+00) (10, 2.48030359926580956653e+01) (11, 1.43141835228775420319e+01) (12, -4.51345578279555770251e+00) (13, 1.78550349407697837023e+01) (14, -2.28302253867930708964e+01) (15, 1.69977902134558545022e+00) (16, 4.22783886791922647319e+00) (17, 1.29047409006652658015e+00) (18, 1.64614533146521435647e+00) (19, 1.41297622331676309138e+00) (20, 2.12170033364409782450e+01) (21, -2.14830824154179955698e+00) (22, -5.76358567695597372449e+01) (23, 2.40906485490145882977e+01) (24, 2.49091733801126054004e+01) (25, -4.21705419425279259826e+01) (26, 3.48715028636879509349e+00) (27, -1.88986848379177274637e+00) (28, -7.21527318739525327373e+01) (29, -1.70340053583117082781e+02) (30, 9.91655229634019086404e+00) (31, 3.43356062941975181957e+00) (32, 6.48757505879197626797e+00) (33, -3.82561078430061751732e+00) (34, 3.45848238193220680614e+00) (35, 5.96126123110083483425e+00) (36, 3.54863613568968361278e+00) (37, 3.58729454600042885204e+00) (38, 2.98346244170360535009e+01) (39, 1.72842534778362688641e+00) (40, 9.86136263491488085364e-01) (41, -1.70255644443066671556e+02) (42, 3.40996534102387016674e+00) (43, -1.13538647312833074210e+00) (44, 3.42350506507582252880e+00) (45, 2.97040915711812942845e+01) (46, -2.15974721907925619746e+01) (47, -1.38888634962285664187e+01) (48, -1.38539566842163708316e+01) (49, -1.38885196593845989810e+01) (50, -2.15502640976858153010e+01) (51, 3.39659340404696052929e+00) (52, -1.37254990336741116153e+01) (53, -1.38200833869422581301e+01) (54, -2.16173300965976729060e+01) (55, 2.97909854202561348302e+01) (56, 2.44447408615742176607e+01) (57, 1.61088762679647473641e-01) (58, 4.00261188536395959292e-02) (0, -8.31415757179766234941e-01) (1, 3.79708237315128704914e-01) (2, 4.65404033029983899006e-01) (3, -3.07963621646100582652e+00) (4, 6.37495998918436601599e+00) (5, 5.44824807429889101940e+00) (6, 2.40048808576651406810e+00) (7, 4.67860984979245309034e+00) (8, 2.46661070680558508483e-01) (9, -3.61761625076316883920e+00) (10, 9.75962352438912716934e+00) (11, 2.82931718561209706309e+01) (12, -3.41260313337178677884e+00) (13, 1.32746615330458936910e+01) (14, -2.22675292598991454440e+01) (15, -1.29156381431788624958e+00) (16, -3.24713841855460705332e+00) (17, 4.85375035967752221922e+00) (18, -3.07918389171296658091e+00) (19, 4.68547924968996820638e+00) (20, 1.44454792611255822266e+00) (21, -3.26714881539279522471e+00) (22, 2.47910415711760094837e+01) (23, 2.11122842325403903274e+00) (24, 4.47326667611240651468e+01) (25, -1.29973300723644229038e+02) (26, -5.46798036057242065056e+00) (27, -7.12406093472917945064e+00) (28, -1.31542944292253167760e+01) (29, -3.08938908169688062344e+01) (30, 5.70657997534269600948e+00) (31, -2.77810739297629627487e+00) (32, 1.52345438035390023934e-01) (33, -2.08071524544425905390e+01) (34, -6.04889267922603890426e-01) (35, -2.52521569684351598895e+00) (36, -2.81148620266677173873e+00) (37, -5.51235480101072594650e-01) (38, 1.24208453896430626173e+01) (39, -5.65700697100424143571e-02) (40, -1.51876767942366193154e+01) (41, -7.22059296899668225933e+01) (42, -2.69147565532685550949e+00) (43, -3.98960560458127089234e+00) (44, -2.80342987124086651107e+00) (45, 1.24061509746101990004e+01) (46, -1.70304611037107065385e+02) (47, -1.70345916415186479753e+02) (48, -1.70346214244695261186e+02) (49, -1.70316185759933546251e+02) (50, -1.70313754404516771501e+02) (51, -4.92492576928102776535e-01) (52, -1.70315725396009042925e+02) (53, -1.70310424516530588335e+02) (54, -1.70331383998127535051e+02) (55, 7.47741732530338065743e+00) (56, 7.59100340090734260201e+00) (57, 2.44576870543060609364e+00) (58, -1.22261939298585281533e-01) (0, 3.75293802094095774180e+00) (1, -1.26252953276644817038e+01) (2, 4.79681520694601282173e+00) (3, 3.82299849015110559947e+00) (4, 1.49755526161055607659e+00) (5, -3.87758532834344649132e+01) (6, -1.93948052894502644961e+01) (7, -8.40073787565324465731e+01) (8, 4.78059786266523289999e-01) (9, 3.55008626682574757183e+01) (10, -4.84951395419167585743e+00) (11, 2.43808683303567219625e+00) (12, 3.63309475927779512716e+00) (13, 1.94095379738807838343e+00) (14, 2.46636744287098608197e+00) (15, 6.78113860729899364799e+00) (16, 1.53967824016729828429e+01) (17, 2.70008279284123808850e+00) (18, 3.70111593228214807993e+00) (19, -7.26287116789171260933e+00) (20, 6.81796956900324779838e+00) (21, 1.06189282000390150529e+00) (22, -4.48119159958698389801e+01) (23, 7.64021170042847508341e+00) (24, 1.54485241946031930382e+01) (25, 1.73174300451279208346e+01) (26, 5.63563325480846444293e+00) (27, 1.54802133028427597594e+01) (28, 2.82985001009614789425e+00) (29, 2.87788605642230832515e+00) (30, 3.25937750081755206466e+00) (31, 1.50510822853484160788e+01) (32, 1.48967875486650473960e+01) (33, -1.73273584183482043386e-02) (34, 1.50284912458100325949e+01) (35, 2.14830265325812810318e+01) (36, 9.38333034416640998643e+00) (37, 1.48639336323776252158e+01) (38, 1.31971106395815738210e+01) (39, 2.70526116540699632651e+01) (40, 1.55118939464012619567e+01) (41, 2.81590669554384076534e+00) (42, 1.50036551675238616355e+01) (43, 2.15178623293845170394e+01) (44, 1.49184030054547793753e+01) (45, 5.07589259778715806704e+00) (46, 1.34535957220622535147e+01) (47, 1.35383101123997207083e+01) (48, 1.36260865721532340444e+01) (49, 1.35091221313604350485e+01) (50, 1.36368693951198096670e+01) (51, 1.50253732374348647483e+01) (52, 1.34595879409142966665e+01) (53, 1.36327994260617728628e+01) (54, 1.35682031679579253591e+01) (55, 2.15187324081866258041e+01) (56, 1.49428735470809943564e+01) (57, 9.03998295190407197275e-01) (58, 9.22015557410789887705e-01) (0, 1.23682338760252186205e+00) (1, 2.88047397805114235858e-01) (2, 7.05799287032977812339e-02) (3, 7.29566125485209160395e-01) (4, 3.91497595869867084928e-02) (5, 1.24410706190851847452e+01) (6, 5.29171360805869817057e+00) (7, 2.98334728851013153417e+01) (8, 6.26805996538834370169e-02) (9, -5.13514077891151856647e+01) (10, -3.27824103714066836801e+01) (11, -1.95308081168474179101e+00) (12, 5.21863496886882671788e+00) (13, -7.01603847913918610146e-02) (14, 2.78834530617866738211e+00) (15, -8.09810649648019659219e-02) (16, -7.54451210624695800533e+00) (17, 2.42811885281261657932e-01) (18, 2.91188146424807614565e-01) (19, 1.60829029787777688654e-01) (20, -3.18850799466433354468e+00) (21, 9.91860613301423388322e-01) (22, -7.42687897241492089861e-01) (23, -2.82721623637872987445e+00) (24, -1.33733648561451055059e+01) (25, -1.10351966772551435270e+01) (26, -2.00033507750178571882e+01) (27, 3.35901796344065406430e+00) (28, 1.23924827008036295695e+01) (29, 2.98221496119194000585e+01) (30, -1.70385923306079462236e+02) (31, -1.70313398669095590776e+02) (32, -9.36197282439601252690e+00) (33, 2.15943449832098766095e+00) (34, -1.70363512585492685503e+02) (35, 2.32142120887723724110e+00) (36, -2.55483373978100871682e+01) (37, -1.70247736441524580187e+02) (38, -1.70341795141430452531e+02) (39, -3.23830458337475519670e+01) (40, 5.97207122365522735663e+00) (41, 2.98363504185371368749e+01) (42, -1.70317359837325170702e+02) (43, 3.22523574227437048734e+00) (44, -1.70329501117201402849e+02) (45, -1.70259480985434606737e+02) (46, -2.22440047580308331021e+01) (47, -2.22339015919274700650e+01) (48, -2.22455495837635410794e+01) (49, -2.21185704264349354276e+01) (50, -2.21492057535356892117e+01) (51, -1.70254801454575613207e+02) (52, -2.21331717166609180936e+01) (53, -2.22767982724613560208e+01) (54, -2.23011691662973774442e+01) (55, -1.70237398865254476732e+02) (56, -1.70320805164607122606e+02) (57, 3.43270540663422496497e-01) (58, 9.87372871008234537227e-02) (0, -2.23149063771438671555e-01) (1, 1.80731622949178077908e-01) (2, 7.66208751433414964049e-02) (3, -1.25422562246990276780e-01) (4, 1.19598233726990729742e-01) (5, -3.21071891495073258316e-01) (6, 1.21033280698024423017e-01) (7, -2.59289801201145198029e-01) (8, 2.22510314062173225613e-01) (9, 8.65755947641065048970e+00) (10, 2.98162366001896828038e+01) (11, 2.13301320264259408610e-01) (12, -1.00348266031750288363e+00) (13, 3.74290126523326993624e-01) (14, -4.94221922605798613670e-01) (15, 2.31628936317357314589e-01) (16, -1.42061659413971908689e-02) (17, 1.55953678612511165147e-01) (18, -1.30482184262911332651e-01) (19, 8.67708688025798507981e-02) (20, 1.10379836037690554074e-01) (21, -1.24785338294494141387e+00) (22, 2.13846849814887320917e+01) (23, -2.08811156938170684738e-03) (24, 6.05246443069826423056e+00) (25, 1.03342357153432153893e+01) (26, 2.79694793230281291141e-01) (27, -4.55144019069899485874e-01) (28, -1.22291843767145778088e+01) (29, -1.70222528474958494371e+02) (30, 1.24551335601595560831e+01) (31, 1.23916994957712809367e+01) (32, 4.58659019220681640761e-01) (33, -5.01417506007466151630e+00) (34, 1.23160675233689467234e+01) (35, -3.35047137034679143319e-01) (36, 1.34010244954784218940e+00) (37, 1.22880481286433855814e+01) (38, 4.73510314154151068511e-01) (39, 1.54632002478327490458e+00) (40, -7.62352426808109662204e-01) (41, -1.70216004746587827867e+02) (42, 1.22961532762733618540e+01) (43, -4.20881930497986944673e-01) (44, 1.23149325727013270182e+01) (45, 1.16443110399608573680e+00) (46, 1.49920416425119888970e+01) (47, 1.48510304416667473504e+01) (48, 1.48839956696282875726e+01) (49, 1.50210406582008850762e+01) (50, 1.48734730134855759331e+01) (51, 1.23330242438701311869e+01) (52, 1.50425383846413147637e+01) (53, 1.48577789540540230462e+01) (54, 1.49200222219478142449e+01) (55, 1.24511106638697306437e+01) (56, 5.23033621444843355164e+00) (57, 6.07351021216320854923e-02) (58, 1.93638952665857788649e-01) (0, -5.08511306172397703484e-01) (1, 9.38233077119631531104e+00) (2, 1.10320344299540229471e+00) (3, -1.19046197030627998181e+00) (4, 1.07739835858949764558e-01) (5, -4.17015255683573921042e-02) (6, 3.45297788651020987061e+00) (7, 1.56008001243895844112e+01) (8, 3.49542104275258047608e+00) (9, 4.91829478969757172280e+00) (10, 9.43878291367283850377e+00) (11, 2.84560917621937831123e-02) (12, -1.11755990694202167468e+00) (13, 9.92055543814751805698e-01) (14, -1.32945772671503936735e+00) (15, 5.72093873030034144600e-02) (16, -7.26345982037972071055e+00) (17, 1.31127983213075727242e-01) (18, -5.85742787843731016473e-01) (19, 8.92571660331858396376e+00) (20, -3.18603591316851814108e-02) (21, -7.11530735521705359758e+00) (22, 2.08781394105789885884e+01) (23, -3.38165925656327193138e+00) (24, 5.48283276777163663951e+00) (25, 4.99063850768273464809e+00) (26, 1.09278761545319724746e+01) (27, -4.47185669479781537916e+01) (28, 2.49730806159734299854e+01) (29, -1.17287064507179223938e+01) (30, 6.88609304007671454428e+01) (31, 2.81529631402758084846e+01) (32, 7.14072840581982326569e+00) (33, -1.16239189035766088409e+01) (34, 2.82267700147298299385e+01) (35, -4.17348929061291045173e+01) (36, 2.82071059804824315620e+01) (37, 2.81604832273391210151e+01) (38, -2.48312340423942963241e+01) (39, 7.40285730069189962244e-01) (40, -7.28136889271925547007e+00) (41, -2.59738617534254174757e+01) (42, 2.80704884987739049507e+01) (43, -4.17954228236076659186e+01) (44, 6.88614995953224280356e+01) (45, -1.28439465509720074365e+00) (46, 9.20682878520710268333e+00) (47, 9.17013963040334978416e+00) (48, 9.21951423313839235618e+00) (49, 9.06786584582550325706e+00) (50, 9.08885287966949739769e+00) (51, 2.82145144652989827705e+01) (52, 9.10295956310255327537e+00) (53, 9.23405512895805635765e+00) (54, 9.15019667622072496727e+00) (55, 2.81016981911328755928e+01) (56, 6.87960790869377234458e+01) (57, 7.00246530831726866906e-03) (58, 3.92000599509564479073e-02) (0, -6.03836280372730738186e-01) (1, -2.24721696489742450709e+00) (2, -1.21952858976292888293e+00) (3, 1.03893858573233077713e+00) (4, 1.99261338982128721753e+00) (5, 3.36256226996163309906e+00) (6, 3.65130941274801945617e-01) (7, 1.02038619345764836055e+00) (8, 1.91600997898968727906e-01) (9, -4.38934192708947605865e+01) (10, -1.99569324633485400966e+00) (11, -2.48434089968528981629e+00) (12, 1.94195913699884847858e+00) (13, 9.41336032034614023090e-01) (14, -4.89504940638468888370e-01) (15, 1.97157334712763310236e+00) (16, 6.87536922795093996541e+00) (17, 2.22887856231430792064e+00) (18, 2.22173746803624627688e+00) (19, 5.88174687222650671714e+00) (20, 2.70807941042821820332e+00) (21, 3.12836504941489090825e+00) (22, -1.92659100374585712245e+00) (23, 1.35687356526252056454e+01) (24, -4.85783833203111470311e+01) (25, -8.81864928601327733304e+01) (26, 2.87805726714067375838e+01) (27, -3.98479440860932232482e+00) (28, 1.17415813732690423876e+01) (29, 3.39289685748533855758e+01) (30, -1.12339959883334783441e-01) (31, 2.55083344234651576699e+00) (32, 4.57176378086784929167e+00) (33, 2.89032594076924240767e+01) (34, 2.58865703745311748207e+00) (35, -5.45755800067199636771e+00) (36, 1.15221583555078712635e+01) (37, 2.62392498655742656410e+00) (38, -1.30175154176204053158e+01) (39, -1.70379916551144674486e+02) (40, 2.88920169584088242232e+01) (41, 6.73345105077514034519e+01) (42, 2.46814147485918056191e+00) (43, -5.30397326638708843660e+00) (44, 2.61160886390632640541e+00) (45, -3.05763003387872771555e+01) (46, -1.70317659395368650621e+02) (47, -1.70306759292812898821e+02) (48, -1.70377007553906992143e+02) (49, -1.70279268267186239427e+02) (50, -1.70252232330473020738e+02) (51, 2.63887348874038707436e+00) (52, -1.70234246435196951097e+02) (53, -1.70370087640913084215e+02) (54, -1.70288037906022623247e+02) (55, 2.51649043811983119667e+00) (56, 1.76853481654010238344e+01) (57, 2.18439527319172732689e+00) (58, 1.75344057147399645658e+00) (0, -7.93130035521470988513e-02) (1, -2.05715538956897603384e+00) (2, -9.69394122666010910061e-02) (3, 1.80970127966153249144e-01) (4, -2.26218474563426696911e-01) (5, -2.06953649990933286062e+00) (6, -7.03493135265242597320e-01) (7, -1.20980687336352978889e+01) (8, -3.13852792247733602959e-01) (9, 2.39017770108212568303e+00) (10, 1.38680031284774187839e+01) (11, 3.89576548910697678663e-02) (12, -8.94803706165026718766e-03) (13, -2.78035245756612203749e-01) (14, -1.47243559815755181708e-01) (15, 4.94705559281088891321e-01) (16, 6.96223894703318624266e+00) (17, -1.48853004740211319890e-01) (18, 1.80712819757347764593e-01) (19, -5.95273116223157039428e-01) (20, 1.04337578437184674840e+00) (21, -4.47979112353116271095e-01) (22, 9.37903457824985409275e+00) (23, 1.97184819668138167081e+00) (24, -8.64748655436433422139e-01) (25, 9.44817475932062933452e+00) (26, 2.97543099707953899724e+01) (27, 3.48965368931992925283e-01) (28, 1.23301704107311884684e+01) (29, -1.02059271856270644685e-01) (30, 1.11654942656511675381e+01) (31, 7.10867593548393159608e+01) (32, 2.97443793079845875127e+01) (33, 1.24473206876305262369e+01) (34, 7.10645114741420655946e+01) (35, 8.31661082026600273487e-01) (36, 7.09526857099628358583e+01) (37, 7.09780551715886502961e+01) (38, 1.28063602906744233856e+00) (39, 2.84237494488914999025e-01) (40, 2.08626295816538558370e+01) (41, 1.42344788470642746869e-02) (42, 7.10431705153679757814e+01) (43, 3.87902559966422810778e-01) (44, 7.09731970838403611879e+01) (45, 8.21962050876470784466e-01) (46, 2.24290208040021035174e+01) (47, 2.23684253214142891864e+01) (48, 2.23574397457979294757e+01) (49, 2.23452432049654099444e+01) (50, 2.23465019731066796282e+01) (51, 7.09866689368283658723e+01) (52, 2.23933224944613549212e+01) (53, 2.22834714619658562640e+01) (54, 2.24449410854123208026e+01) (55, 7.10967630556917100648e+01) (56, 2.97014630286984413488e+01) (57, -2.15182450430127847341e-01) (58, -2.13101968930694329885e-01) (0, -5.22335477372401629781e-02) (1, -5.87510285353448957757e-01) (2, -1.07210598000427204113e+00) (3, -1.56677013215828431214e+00) (4, -1.12663200357099491100e+00) (5, -3.20621321046466878357e+00) (6, -2.68450285641277763826e-01) (7, -8.61797519608128004265e-01) (8, 6.24583632606447558544e-01) (9, 7.04396040677954626830e+00) (10, 8.51057088883796630796e+00) (11, -3.50940139038726250931e+00) (12, 1.15655861328689835155e+00) (13, -5.24312236939246667511e-01) (14, 6.94285200810551339501e-01) (15, 5.01837883620921143546e+00) (16, -3.38023355052246676777e+00) (17, -4.58893868675395499857e-01) (18, -1.13489895451409261717e+00) (19, 5.60632803398550372265e-01) (20, 3.95397519307393841004e+00) (21, 1.58565675326286843472e+01) (22, 1.24028149547961845656e+01) (23, 2.05424407927854879574e-01) (24, -2.25763249674647159537e+00) (25, 2.97261097802810638768e+01) (26, 2.80969181444910489631e+01) (27, -4.55872648173751926493e+00) (28, 9.33759466163115803283e+00) (29, 1.42041423880507844402e+00) (30, 6.23646135796066616308e+01) (31, 6.87869029444239714621e+01) (32, 2.82064872842696630073e+01) (33, 4.18063043171567372269e+00) (34, 6.88217005607269385337e+01) (35, -1.97678162876561813732e+01) (36, 6.86990537893555739402e+01) (37, 6.87880436208627799033e+01) (38, -1.70311239192815378374e+02) (39, -3.58356852910786916055e+00) (40, 1.04658490767685883327e+01) (41, 1.43360675090005296184e+00) (42, 6.86975837525508978842e+01) (43, -1.02157493548285920326e+01) (44, 6.87548087787411787986e+01) (45, -2.98436732864681744104e+01) (46, 2.98607120140485733373e+01) (47, 2.97787082939438789708e+01) (48, 2.97794138937287300450e+01) (49, 2.97281547560386627538e+01) (50, 2.98893435373001068456e+01) (51, 6.87756397080205061911e+01) (52, 2.98863572402887314183e+01) (53, 2.98919973148994415624e+01) (54, 2.98799806757860153539e+01) (55, 6.18327082847624538431e+01) (56, 6.86964329656742194175e+01) (57, -5.26264376541539680154e-01) (58, -2.85024042574490044100e-01) (0, 4.04209600836834592741e+00) (1, -3.54785005377187101505e-01) (2, 2.30455958341068711803e+00) (3, 2.42902051900333848522e+00) (4, 1.60944781947662041155e+00) (5, 2.38148508463806685143e+00) (6, 2.32523387798888769851e+00) (7, -2.23411763760140136270e+00) (8, -5.38567811108306981893e-01) (9, -3.85616859133367455570e+01) (10, -4.49177185360393025348e+01) (11, -5.46670899979639024480e-01) (12, 3.10346180035464591640e+00) (13, -1.74029701486165300217e+00) (14, 3.75496775902313206785e+00) (15, -7.15372073559442989144e-01) (16, 6.93555758799834887185e-01) (17, 1.63416440535117790667e+00) (18, 1.49575482804109216595e+00) (19, -2.42904862591229031565e+00) (20, -2.72751101212442481625e+00) (21, 1.05393124392400699962e-01) (22, -3.13090238962765496922e+01) (23, -4.28300532060141581070e+00) (24, -9.63189835058646082189e+00) (25, -3.57200830018969810453e+01) (26, -1.70259413423569753832e+02) (27, 3.86351374367359889916e+00) (28, 1.13268670424179873635e-01) (29, 1.56922243916631920513e+00) (30, -9.63300088087186452412e+01) (31, -1.70284482481511190599e+02) (32, -1.70235311108263090318e+02) (33, -2.50667850027408833924e+00) (34, -1.70297033595474317735e+02) (35, 9.48576113411550636556e+00) (36, -1.70309481891425207323e+02) (37, -1.70355146049143627351e+02) (38, 3.42018285553969025869e+00) (39, 1.31272968301143571068e+01) (40, -2.10851111557513064554e+01) (41, 1.65726695590854866680e+00) (42, -1.70359693246515348619e+02) (43, 8.97448916427245357852e+00) (44, -1.70252791973383978075e+02) (45, 6.88208220638279222214e+00) (46, -1.70229371773632124132e+02) (47, -1.70299773285718515581e+02) (48, -1.70378412688704088396e+02) (49, -1.70394905964465692705e+02) (50, -1.70262514310510709947e+02) (51, -1.70320591414900377458e+02) (52, -1.70326753410132482713e+02) (53, -1.70230379822285726732e+02) (54, -1.70354392340959861940e+02) (55, -1.70266711624892309374e+02) (56, -1.70400716046424463457e+02) (57, 1.96727615718482629070e+00) (58, 1.74764720522200245334e+00) (0, -1.07436642588066333381e+00) (1, -3.52633715128939595473e+00) (2, -4.63000602077433054404e+00) (3, 1.08340379670482644947e+00) (4, 6.91444945521968001856e-01) (5, 1.60726197266969106359e+00) (6, 9.31216464782589570248e-01) (7, -4.19370367158562462606e-02) (8, 2.57471422914848591113e-01) (9, -4.69302280852212732043e+01) (10, -1.46440032798915567014e+01) (11, -2.53955867240753407899e+00) (12, 1.79453705559445553241e+00) (13, -8.41159311542349019675e-01) (14, 5.54699434001329261257e-01) (15, 2.53128798793582054927e+00) (16, 3.57361034691476575631e+00) (17, 1.33336641631187124979e+00) (18, 1.38370346970121804731e+00) (19, 5.35396502649046635014e+00) (20, 7.64911929446260252519e+00) (21, 1.25962711053875580092e+01) (22, -1.82605593135959232143e+00) (23, 2.98578329010896652562e+01) (24, -1.70330643499823167986e+02) (25, -1.14376969369135963461e+01) (26, 2.97145657240443199498e+01) (27, -5.16530097320740377853e+00) (28, 2.98683022632293670995e+01) (29, 2.97230102865986793859e+01) (30, 1.04339402193562769128e+01) (31, 1.48900622266482365319e+01) (32, 2.97362717128388851506e+01) (33, 2.98048772363953560216e+01) (34, 1.48859488914858353326e+01) (35, -3.08748752216519193325e+01) (36, 2.97587349935464828832e+01) (37, 1.49959271351944458672e+01) (38, -1.70267197656066969103e+02) (39, -1.70291357169480875200e+02) (40, 2.98093685059838264806e+01) (41, 2.97099179922633140905e+01) (42, 1.48956016513656628319e+01) (43, -6.12006325608936929683e+00) (44, 1.50268178234945786187e+01) (45, -1.70382225962908819383e+02) (46, -6.82074821201498338041e+01) (47, -6.83025748190815278349e+01) (48, -6.83361078259880372343e+01) (49, -6.82275914159948655424e+01) (50, -6.82685058919126817045e+01) (51, 1.49888329903732788750e+01) (52, -6.82314815131361314116e+01) (53, -6.82858261150653191862e+01) (54, -6.82999118102128335295e+01) (55, 1.03697847674028658105e+01) (56, 2.44884202181492298678e+01) (57, 1.01282870844226846607e+00) (58, 2.17374945328000751532e-01) (0, -5.86981666813210511968e-01) (1, -1.02301371565880691583e-01) (2, -5.88528935824059185045e-02) (3, -5.43903449157790208623e-01) (4, 3.28132173617524669496e-01) (5, -1.63297642471564352640e+00) (6, -8.34659186040570655329e-01) (7, -3.27481910386488994646e+00) (8, 1.51948496264545457324e-01) (9, 6.97607331174542455443e+00) (10, 8.50583655407110228452e+00) (11, 5.00908813663750840384e-01) (12, -2.53709589413227909471e-01) (13, 4.92991458165104479150e-01) (14, -8.32896989618947425349e-01) (15, 3.09029105591232922112e-01) (16, 1.03654386365785389224e+00) (17, 1.49233340782253282031e-01) (18, 9.30571580158241623559e-02) (19, 2.73113463297963543486e-01) (20, 4.47443518080741176046e-01) (21, 7.05914223419197434106e-02) (22, 5.15798298852834591344e+00) (23, 1.05092607701196438796e+00) (24, 8.55342022480637953485e-01) (25, 8.64640837869574951924e+00) (26, 7.10183101258373170594e+01) (27, -4.47392648024374395277e+01) (28, -3.49017482293391911874e-01) (29, -3.02349271831905923591e+01) (30, 7.10168867892718225221e+01) (31, 7.09964678621983438234e+01) (32, 1.96954530068243478524e+01) (33, 2.76637147441322683861e+00) (34, 7.10961050055122285585e+01) (35, -3.33070931042189783966e+01) (36, 7.11219007036781221132e+01) (37, 7.10347070208883195619e+01) (38, -1.23519608305940309378e+01) (39, -1.63427759905150682407e+00) (40, 5.64147085021630445567e+00) (41, -5.66721880326214773049e+01) (42, 7.09856258145666032533e+01) (43, -4.45524327022844701673e+01) (44, 7.10760483256673722963e+01) (45, -2.91069875084382090336e+00) (46, 2.98881517126255005223e+01) (47, 2.98032983838610618932e+01) (48, 2.98567554279260605199e+01) (49, 2.98877471460990875585e+01) (50, 2.98715972824983566625e+01) (51, 7.09335346928930192689e+01) (52, 2.98648768438987701757e+01) (53, 2.98765159769945114476e+01) (54, 2.98751669450693100316e+01) (55, 7.10541487223601251344e+01) (56, 7.10392322278714090089e+01) (57, -4.04952218903533583960e-02) (58, 1.06052383345691780825e-01) (0, -4.79678940573308754125e+00) (1, 1.01285888731941908780e+00) (2, 9.46163353626582215306e-01) (3, -4.73328754851196098485e+00) (4, -1.75617375665816366492e-02) (5, 3.24563084846821864327e-02) (6, 8.10799597507802088936e-02) (7, 1.49071349687317589172e+01) (8, 1.01632118702397078458e+00) (9, 2.07091194612330298241e+00) (10, 1.46365189430133550985e+01) (11, 1.02647433172647972732e+00) (12, -7.34724944465349771860e+00) (13, 1.10297241874693430219e+00) (14, -7.28439252459000208262e+00) (15, 9.58769132499548981663e-01) (16, -7.28979695223759271983e+00) (17, 2.79880760914174159248e-02) (18, -4.24773396247538764792e-02) (19, 1.13332017988428779276e+00) (20, 9.85205670003745370700e-01) (21, -2.52380799108378628404e+00) (22, 1.25744505154875412245e+01) (23, -9.15582117377844971473e-03) (24, 4.39857234274580033428e+00) (25, 4.90903190007392975502e+00) (26, 1.96749513898674983636e+01) (27, -4.46430011255556493666e+01) (28, 1.79268308143861005988e+01) (29, -3.45872070751446329950e+01) (30, 2.97217138557724922521e+01) (31, 2.98702806754999130590e+01) (32, 1.63452671640215463356e+01) (33, -7.34087756656597711924e+00) (34, 2.98469916804723709447e+01) (35, -3.71745125074184770142e+01) (36, 1.13266428782696131350e+01) (37, 2.97868416755490272863e+01) (38, -7.74331374734919730685e+00) (39, 3.42492472571069184184e-01) (40, 3.04756788981154169704e+00) (41, -5.08131279277211191925e+01) (42, 2.97441787867836922032e+01) (43, -4.16601951657531088813e+01) (44, 2.98434333427839248998e+01) (45, -1.51892435159239336251e+00) (46, 1.83698615863373397872e+01) (47, 1.12837752947853822150e+01) (48, 1.82126137226274131820e+01) (49, 1.12502238551424760260e+01) (50, 1.12809353420780915656e+01) (51, 2.97737165539555519445e+01) (52, 1.81957261248877166793e+01) (53, 1.81911550893833755538e+01) (54, 1.83112734838774322554e+01) (55, 1.25934572744158401747e+01) (56, 1.25652428495672836561e+01) (57, 1.00405886650690182038e-01) (58, 1.03061961114868849698e+00) (0, -1.46422362152576424066e+00) (1, -3.04077153708632808016e-01) (2, 6.58212608859291559149e-01) (3, -2.47246654614522931581e+00) (4, 4.89144362446350378093e+00) (5, 1.20454359223549678504e+00) (6, -4.00696822837586674737e-01) (7, 3.61506028196656759022e+00) (8, 8.59971989116678825482e-01) (9, -3.50952392963720782859e+00) (10, 9.78382607235656109879e+00) (11, 5.60667634891370614270e+00) (12, -2.08776445614392613948e+00) (13, 7.91698198037645006764e+00) (14, -1.68097021137181954487e+01) (15, 5.84366237075199412843e-01) (16, 1.06656127187332172568e+00) (17, 3.59106181419708558877e+00) (18, 2.16754079137157518176e+00) (19, 1.74438227595605632736e+00) (20, 2.81635841761294081209e+00) (21, -3.87405925936624484507e-01) (22, -4.17037611555971743371e+00) (23, 1.25406237455925007040e+00) (24, 9.87704854144797650406e+00) (25, -9.50183258335271005990e+01) (26, -2.22713778445332355460e+00) (27, -1.68104715053741173847e+01) (28, -1.40975555642265177880e+01) (29, -1.70324413003953054613e+02) (30, 8.93825327467293995198e+00) (31, 1.52556755706610580603e+00) (32, 7.06697774062139294493e-01) (33, -6.68845288200459542338e+00) (34, 1.52906538858952423254e+00) (35, -3.72769553852375024050e+00) (36, 4.68638152430651655500e-01) (37, 1.48508688375296493689e+00) (38, 2.79405001173078559873e+00) (39, 4.14815108617679761949e+00) (40, -2.70309129679144932723e+00) (41, -1.70338954272301748460e+02) (42, 1.54475680306496521155e+00) (43, -1.22445099363429790174e+01) (44, 1.57551186844649215857e+00) (45, -4.75327136129946592469e-03) (46, -1.70389215516479566759e+02) (47, -1.70265574860008314317e+02) (48, -1.70272503318818166917e+02) (49, -1.70254562946589544481e+02) (50, -1.70217107477219656175e+02) (51, 1.49918069630803962866e+00) (52, -1.70316166813107088274e+02) (53, -1.70334185066254690355e+02) (54, -1.70354404932441070741e+02) (55, 7.21500537009475539918e+00) (56, 1.03651129649869364613e+01) (57, 7.89046648159117625099e-01) (58, 9.64219745419035545453e-01) (0, 1.17245590740441080202e-01) (1, -2.40401934300118989840e-02) (2, 1.66479209099827080154e-01) (3, 2.27209386376390209961e-01) (4, 1.48547501896438866043e-01) (5, -4.87188319755706622516e+00) (6, -1.90037624560969220511e+00) (7, -1.20273167909411107246e+01) (8, -2.55588872427023328093e-02) (9, 1.24943082055902650040e+01) (10, 1.12502565975653490149e+00) (11, 7.84310507394644140788e-01) (12, -1.96407519303934918753e+00) (13, 2.23174654416189444106e-01) (14, -4.93286219089792143944e-01) (15, 1.26149875072488537597e-01) (16, 1.35816733612697859712e+00) (17, 3.79390324258158731507e-02) (18, -4.52983710696038335830e-02) (19, -1.94827137910502323770e+00) (20, 1.29065555480966320800e-01) (21, -1.91089534782545911185e+00) (22, 4.40796925943167827722e-01) (23, 5.43430217773644835821e-02) (24, 4.47656808300485931085e-01) (25, 2.12282114959841905488e+00) (26, -6.08947031292973173233e-02) (27, 1.23257538216870887737e+00) (28, -4.87481029225501849567e+00) (29, -1.21006925300983105842e+01) (30, 1.25731419681465794724e+01) (31, 4.26693997341223685282e+00) (32, 1.46114175465356210815e+00) (33, -4.91254846645507647906e+00) (34, 1.92718751950175430920e+01) (35, 1.43274971523959209208e+01) (36, 1.17199127791255919284e+00) (37, 9.94126553888858488506e+00) (38, 7.11118606141900926332e+01) (39, 2.95564807783179190892e+01) (40, -7.10085706689422946347e-01) (41, -1.20347403855351124946e+01) (42, 6.42457672287661907262e+00) (43, 2.00115964629500897587e+00) (44, 8.18551652609820301620e+00) (45, 7.09330026916360765199e+01) (46, 2.99540550776060676696e+00) (47, 2.93951922796901321533e+00) (48, 2.96178636469181633117e+00) (49, 3.02604462720688438537e+00) (50, 2.88934454836186027649e+00) (51, 9.90371592398227384990e+00) (52, 3.01324597515400505188e+00) (53, 3.03318754352863884094e+00) (54, 3.04312342919643974426e+00) (55, 9.82569008375943830913e+00) (56, 1.06851719206971229603e+00) (57, 3.50873473005826400084e-02) (58, 1.67147377504151040117e-01) (0, 5.70194931401292293138e-01) (1, 3.91959686924561623300e+00) (2, 1.50094377823891789170e+00) (3, -1.05003721869774224729e+00) (4, -2.61678244320476982576e-01) (5, -5.71701641729041587503e-01) (6, -4.85455590834781236520e-01) (7, -1.74311561889178356921e+00) (8, 2.54651542000507657981e-01) (9, 2.97106366901688545568e+01) (10, 2.98413279428176849706e+01) (11, 1.41893066448937643642e+00) (12, -1.61361813226895756124e+00) (13, 5.73478259998739581249e-01) (14, -1.06333279827304871823e+00) (15, 4.93607157541791463640e-01) (16, -6.58809348252729076734e+00) (17, -3.94869979074164823007e-01) (18, -1.03469118333645226926e+00) (19, 1.23806188993191040870e-01) (20, -3.77233843652332700991e-01) (21, -1.16478107962094306060e+01) (22, 2.12217886165614402216e+01) (23, -7.00813642322213858904e+00) (24, 1.24467246535209312697e+01) (25, 2.08988079321024642354e+01) (26, -3.05086787942230870385e+01) (27, -2.83543698909509700457e+00) (28, -1.70280010151298597521e+02) (29, -1.70233654263051107591e+02) (30, 2.04621442378296549691e+01) (31, 2.58062094922503248995e+00) (32, -3.89451381804676399767e+00) (33, -7.15639935718160131728e+01) (34, 2.99488957631813512705e+00) (35, -1.31080371796955952313e+00) (36, 1.26624741689996311855e+00) (37, 2.64391446586092726534e+00) (38, 5.70186729006994763580e+00) (39, 1.43311192986924211823e+01) (40, -7.14435498216431597029e+01) (41, -1.70354236076207712358e+02) (42, 2.50699357415875168087e+00) (43, -2.74337145733464282671e+00) (44, 7.56493967670781586321e+00) (45, 2.98910527600936859471e+01) (46, 1.48703388075481903741e+01) (47, 1.04660272846357607079e+01) (48, 1.04967431972162508202e+01) (49, 1.48550644318710816094e+01) (50, 1.04868186960356020165e+01) (51, 2.53351546178897635286e+00) (52, 1.04457832226888918115e+01) (53, 1.05082282821075700951e+01) (54, 1.50278924505363953301e+01) (55, 8.26513663772574247446e+00) (56, 2.84784885376992447092e+00) (57, -5.01799363246127616556e-01) (58, -5.49438971629306327493e-01) (0, -5.67222317764987438160e-01) (1, 1.27136961617419608217e-01) (2, 4.53220693015404588189e-02) (3, 2.24449784511422140154e-01) (4, 1.24214590596719673399e-01) (5, 1.16217242909447926458e+00) (6, 1.48187567501612493803e-01) (7, 7.77005413055558857849e+00) (8, 1.65050026098750968195e-01) (9, -6.13512967297770295261e+00) (10, 7.81731108351389103461e+00) (11, 1.04229511031646082664e+00) (12, -5.96276628504411876364e-02) (13, 2.60932818075144346004e-01) (14, -5.39972788142280113455e-01) (15, 1.39160331408046678003e-01) (16, 1.88979161904227588309e-01) (17, 1.77829030970596213557e-01) (18, 1.62515129963420823511e-01) (19, 1.16243250651137608465e+00) (20, 1.58913318137191728052e-01) (21, 3.53803284692838726500e-01) (22, 9.30503752040089615605e+00) (23, 2.03371355042404022839e+00) (24, 3.99079178825249236695e+00) (25, -1.11896729155411989609e+02) (26, 3.00825524862498383527e+00) (27, -1.16757447310849311606e+01) (28, -7.79465512000154348016e+00) (29, -1.70404253947170332140e+02) (30, 1.64693856180571351899e+01) (31, 6.07206287467937766422e+00) (32, 1.64440583043206389746e+00) (33, -1.81259512309240178318e+00) (34, 1.35809888597703949387e+01) (35, -5.29501364372884797405e+00) (36, 5.63014141618747920859e+00) (37, 1.36114221457518116409e+01) (38, -8.59629423965600603097e-01) (39, -1.28519267476779930348e+01) (40, -3.00245052803277090447e+00) (41, -1.70283086779149130052e+02) (42, 1.37063993606842533524e+01) (43, -1.16986521744295242087e+01) (44, 6.05763875180940924992e+00) (45, -1.39866276823258228745e+00) (46, -4.58980004394811231805e+01) (47, -4.58189801032107908441e+01) (48, -4.59564383680385191155e+01) (49, -4.59846497828525144769e+01) (50, -4.59552700909238893701e+01) (51, 1.36768925581253544266e+01) (52, -4.58632187003654081536e+01) (53, -4.59204003120225507928e+01) (54, -4.58982969055336553765e+01) (55, 1.37119187656916157181e+01) (56, 2.45060663520489185885e+01) (57, 7.35006593861808193990e-02) (58, 5.90763055482139143315e-02) (0, -2.39788988200935726525e+00) (1, 2.16772593416806602651e-02) (2, 5.85553608693715477163e-02) (3, -2.32245551018032436730e+00) (4, 3.20815450100853216675e-01) (5, -2.33919854430469875695e+00) (6, 3.53450186143570987962e-01) (7, -1.55019209221282716626e+00) (8, 3.12943010179950964478e-01) (9, 2.97880632652931183202e+01) (10, 2.97254453300528496129e+01) (11, 1.37552661331217529472e+00) (12, -7.13589836175078762182e+00) (13, 8.80190647893880462327e-01) (14, -9.83342524072070922614e+00) (15, 8.01829120510091919449e-01) (16, 8.38531981719010555132e-01) (17, 1.62868089832898382818e-02) (18, 4.53805252768632316762e-02) (19, 1.84847693876230373400e-01) (20, 8.81216633630269252642e-01) (21, -7.22654886806840313085e+00) (22, 2.92632276992325728315e+01) (23, 8.27859099519723140581e-01) (24, 2.94244941527967398542e+01) (25, 2.08383085992572532064e+01) (26, 1.04200470919148706628e+01) (27, -2.22571487798466236541e+01) (28, -2.95373657485084493146e+01) (29, -1.70282400833995893663e+02) (30, 2.98797546996765106542e+01) (31, 2.97864603175811737401e+01) (32, 2.08928689103958831197e+01) (33, -3.32900575206608984047e-01) (34, 2.97481447271101444585e+01) (35, -1.41499500399082656088e+01) (36, 2.98927816077165573461e+01) (37, 2.97605679183297127111e+01) (38, 6.86993350040696242331e+01) (39, 5.68756769185997157479e+00) (40, 3.03864931102484803205e+00) (41, -1.70348074758978441423e+02) (42, 2.97194674312167137487e+01) (43, -2.23185850977077038237e+01) (44, 2.97165341301851242406e+01) (45, 6.88098491903923132895e+01) (46, 2.97679856716685264928e+01) (47, 2.97365600652091472966e+01) (48, 2.98628722651891678197e+01) (49, 2.98228963389091461522e+01) (50, 2.97309378980689018590e+01) (51, 2.97255828454189270360e+01) (52, 2.98864892347745865209e+01) (53, 2.97633776514821022374e+01) (54, 2.97349359019689529759e+01) (55, 2.98801954164199798925e+01) (56, 2.98687490894489258153e+01) (57, 1.35325904921495571154e-01) (58, 3.88798064141227972534e-01) (0, -5.85084028635393660345e-01) (1, 9.38820116560501816139e+00) (2, 4.94539286790546983585e-01) (3, -2.10303749528620320675e+00) (4, -6.13267713612106413201e-01) (5, 3.11336435449316706325e+00) (6, 7.80455350709549211530e+00) (7, 3.70351256732505040858e+00) (8, 3.51733939917119009522e+00) (9, 2.19954826195888486495e+00) (10, 3.06262125105482008181e+00) (11, 7.21054188766118570042e-02) (12, -6.90799778471603254104e+00) (13, 2.68876382441082117936e+00) (14, -2.00909740935818570406e+00) (15, 1.16127913242905744795e+00) (16, -3.06450433056390743047e+01) (17, -5.97557583278205961541e-01) (18, -1.25935240586430796661e+00) (19, 8.85284857280029058302e+00) (20, -6.29153342371967405633e-01) (21, -1.09154235188301296233e+01) (22, 6.12996473900247096367e+00) (23, -8.52809587624370557535e+00) (24, 1.24595543335167064924e+01) (25, 1.37825560455485374156e+00) (26, -7.15195520841758707320e+01) (27, -2.63728490961960986283e+01) (28, -1.70285619350703314012e+02) (29, -1.70377059901686266130e+02) (30, 3.17916726827995290705e+01) (31, -3.33293662741148821738e+00) (32, -1.20465773628243724147e+01) (33, -1.70258513393433645433e+02) (34, -8.86183898734277608611e-01) (35, -2.22913658543600590178e+01) (36, -6.97111515935922199105e+00) (37, -3.33522865697110049155e+00) (38, 5.60255182452951601135e+01) (39, 1.97390883400535810388e+00) (40, -1.70316095809073999590e+02) (41, -1.70264767202170446581e+02) (42, -3.40638252123558871176e+00) (43, -2.36977062178076920418e+01) (44, 9.36197977849037854536e-02) (45, 4.66645846770030914286e+00) (46, 2.23671063254613766702e+00) (47, 2.25656611691255459817e+00) (48, 2.31270841727990994485e+00) (49, 2.17565423469085583719e+00) (50, 2.30241132746477017434e+00) (51, -3.43289877250159136679e+00) (52, 2.24302617679376492532e+00) (53, 2.18472644160528073343e+00) (54, 2.17907626028199086221e+00) (55, -1.84696085260187925492e+00) (56, 6.62589845262731458320e+00) (57, -5.03262297636058897332e-01) (58, 1.11862512475579389815e+00) (0, 2.99195803073625476998e-01) (1, 2.66269228836151761186e+00) (2, 2.98546872897411552650e-01) (3, 2.09071031403762958023e-01) (4, 2.12220137675512121600e-01) (5, 6.03467588640104590780e+00) (6, 1.40200595666385186000e+00) 